886 128
帮助 -1.6008829 0.64723396 0.4722588 1.3292643 -0.045564935 0.061876323 -3.6782632 0.82217604 -0.2131478 -1.0740085 -0.44259822 -1.3672897 3.6166246 -0.6320571 0.14044562 -2.3944983 -1.4081137 0.2640067 2.3873103 2.0222466 -1.8518184 -1.7641997 -1.7997068 -2.1652992 -0.819766 -4.2639647 0.60878766 1.9318565 -1.3743476 2.1396039 -0.04450762 2.089461 0.10461255 -0.33394408 0.6871196 -3.540242 1.395313 1.3341538 -2.240013 2.556383 -1.9783435 -0.49889705 1.5050731 0.68963116 0.9110644 0.6548051 -0.27778912 -0.40455258 -1.9903053 -0.721101 -0.39530736 -1.0948427 1.8029238 0.27087435 -0.088520594 0.9494749 0.9649771 0.96606386 -1.9845695 0.26687515 -0.4715887 -2.0930219 -3.3472266 -2.0000443 2.1173491 -1.3623055 -1.9796956 -2.1143167 0.06014578 -0.86556906 0.4813136 1.5333706 0.59199136 3.2124531 0.6071515 0.35815403 -2.295325 0.9908312 -0.24788143 -1.3892392 1.7457235 -1.9312714 1.4210845 0.4619712 0.4340747 0.9550515 1.5662289 0.8787653 1.1434385 1.3608589 -1.9647609 1.4220667 0.08600702 -0.93951976 0.23468551 0.13092507 -2.0824175 0.954228 1.0106122 -1.6285421 2.631253 -2.12772 -0.9742764 3.0356832 2.1147375 -1.1022757 0.2262305 -2.295704 2.9454215 -0.43039432 0.7860169 -0.41573057 3.0543315 -2.1350253 2.2363722 0.0050047864 0.6735085 -1.6446716 -0.091636814 0.24724832 0.08437091 -2.9318438 -1.9864204 -2.3058465 1.4392196 -0.2815032 1.8493372 -1.246763
成龙 -0.60534036 0.38707766 -1.0462643 -2.0209827 1.2784978 -2.1603928 -1.1491967 1.2175745 -0.79169935 0.15701962 1.9397103 1.0019937 -0.83551323 -2.3267756 -0.46584764 0.75737894 -0.7504924 -1.3623273 1.1052285 3.0262437 3.1118367 0.066082895 -0.8518198 2.0326266 0.4055018 -0.2051808 -0.4312357 -1.8037748 1.9842212 2.4461374 -1.0029318 -0.52228045 0.39815313 -2.1118543 0.8136596 3.459163 1.2853987 -0.64849544 -2.509001 1.45911 -0.044803392 3.320695 -0.26400584 0.53622276 -1.0564384 -0.30716878 0.6879308 -0.23858817 -0.82882124 -0.035295483 0.5259501 -0.514623 -1.2235559 -2.632225 0.12785344 0.78890496 1.9384291 1.682976 1.059223 1.9014599 -0.6177257 1.2984375 -0.36566636 0.8380565 -0.49487698 2.021895 0.8131893 0.57944894 2.2474177 -0.8126453 -0.57626647 -1.9404606 -1.1001204 -1.6027339 -1.2055749 -0.0036269433 -1.8377697 1.1970125 -1.0308267 1.2662643 1.9634186 0.70701146 0.5021528 0.22155961 1.82021 1.486602 0.8556279 -1.2580025 0.023552723 0.59478444 0.15351166 0.16195786 -1.2822722 -0.22281136 0.7123577 0.43401062 -2.0844414 3.1032655 -0.84696954 1.628701 0.06709436 -0.9651408 -0.111564495 -0.9726807 1.8250841 -4.2367644 -0.39426038 -1.9756488 0.26198304 -1.479791 -0.1881493 -2.4064598 -0.32003853 -0.6042931 -0.34778944 -0.76804525 1.3570998 -0.29893866 0.36032346 -2.6920285 -2.1271799 -0.44612363 -1.7462286 0.0014835557 0.78591084 -0.9052425 -0.15579224 -1.1833925
电视剧 -1.0243737 -0.10568105 0.19356592 1.0961009 4.716627 0.8017785 1.8359244 1.0785786 0.36653334 -1.5915452 1.5877682 0.54613435 -3.1123586 -1.565763 -2.692943 0.34097394 -2.2107308 -0.88271236 -1.4577073 1.5226752 1.8268766 3.598284 -0.039952517 0.24664745 1.0895737 -1.027374 2.4695094 -0.0933834 -2.3432138 -1.5540992 0.59454304 -0.90786034 0.5506367 -2.6783414 1.3300703 1.7581035 -0.9523459 0.83418363 -0.9511242 0.75068223 1.3257183 0.7284565 -2.4114666 -2.0542588 0.49978346 -0.563851 1.3471584 2.571448 -0.68165344 1.9405502 3.5540686 1.1917268 -1.0293955 -1.4981035 -0.45027414 -0.987463 1.9478182 -0.8155674 3.1693091 1.1573032 -1.4821882 -0.7655642 -1.0312325 0.459328 -0.9735324 0.8225385 0.52006435 -0.5319787 -0.93759674 1.7137586 0.16593513 -0.39596716 -0.6977061 -2.434505 3.0283782 0.5157162 0.10412055 0.2192393 -1.2979637 5.269879 -0.48353165 1.813686 0.22404248 4.2276225 -0.6687966 -0.32866088 -4.0618153 -0.48543945 -2.56048 2.7883344 2.7191849 -4.332998 -1.8683038 0.77438647 0.42561322 -0.25483918 2.7467322 -0.98070157 0.7783241 -0.26983362 0.17382866 -4.0198603 -1.0150965 1.4750386 0.0073452815 -3.873625 0.89388204 -1.2857985 2.9174032 2.2974098 -0.18939862 2.2527297 -1.0478058 -1.2278396 2.4050076 -0.47265404 -2.2740726 0.9539918 1.0716021 -0.101337254 -0.6121716 -0.028084356 0.3265025 -0.7881182 -0.8675362 -1.184845 -1.1780428 1.4995383
读者 0.559629 -3.0886235 4.2065916 0.3946736 2.865449 -0.8671238 -0.2752818 -0.8479679 -0.52545744 2.8222969 0.8783755 -0.88896745 -3.2757752 1.263611 0.8351392 -0.40158513 -2.7053363 0.3260364 1.395312 0.32449007 0.95758724 1.9325906 0.46790102 -3.5324593 -0.9388097 -0.06712665 2.5015638 2.0888405 0.53658414 -1.9117609 -1.7349392 -0.7909398 -0.15210629 2.1875486 2.4437523 3.338748 0.5123453 -1.4284288 0.7274686 -0.36761197 0.3624604 0.07627574 -0.5101281 0.30702326 0.50416064 -1.3777988 1.065064 -1.467676 -1.6947665 1.8788991 3.7382264 -0.19901766 1.9962332 0.14986938 -1.360576 1.6314591 4.3005776 -0.71887636 4.1189075 -0.8723851 -4.0229836 -1.6609875 2.2858322 -0.79773533 0.36124247 2.113616 3.2318747 0.9341878 -3.1555948 1.7650682 -0.26108867 0.1036677 -1.857137 -1.856284 0.31210345 -1.2699044 -1.6901114 -0.5586509 3.2165065 3.0123777 -1.8203324 1.002485 -1.017762 -1.0629722 -3.5885258 -1.6083033 0.13256025 2.7188702 -1.1183972 1.0193658 1.9289886 0.55352724 0.66830623 2.6263604 -1.7479833 0.274232 0.60045546 -2.2301576 -0.78129417 -0.47453174 -0.28349113 -0.7461262 0.4063091 2.2372947 3.2010179 -1.4427665 3.696541 -1.3691436 6.7355847 -0.27624965 -1.6712687 2.1375797 3.816781 -0.057362217 3.2312105 -0.78065974 -2.5241547 1.6617491 -1.8180876 0.16007161 0.1859892 0.2840428 -0.45745015 -1.787157 0.091308706 -1.0248169 0.9764848 -0.35346875
东方 -0.20967622 0.7209727 0.49172744 1.2373925 -1.0300834 0.6134404 1.5024674 -1.1675344 -7.437265 0.5507382 -1.167254 0.46974745 3.1255586 2.2945967 5.338552 3.7970932 0.8871568 1.4373417 1.1526712 2.8834617 -0.8673596 0.9331814 -3.2535186 -5.3913713 -3.1384883 0.3053342 -2.0918736 0.51914775 0.9566688 4.184181 -0.04231741 -2.0336392 -3.4110014 4.6112514 5.2419114 -1.7612032 -0.9336363 3.4713542 -0.96825385 5.572642 -3.5552268 1.3321654 -2.3459296 -1.395157 -0.7117987 1.5574896 -4.9943233 1.8463173 3.9543924 -5.0117016 -1.0332156 -4.044248 -2.892683 5.0600557 -2.262229 -0.1713666 3.5759277 -0.87817913 0.5469624 -1.3187542 -3.1025388 -0.69462425 3.1565235 -3.6513422 0.5860968 0.16433667 -2.4130454 2.1102488 -4.570053 -3.5845861 1.9766406 -4.602708 1.0849168 -1.6907781 2.9675658 -1.2428824 -2.8703349 -2.649502 -2.389198 -1.0799749 -2.0519261 3.2955015 0.77027017 -4.8606644 4.855165 -4.191324 -4.602236 1.8716804 0.31614393 0.40900967 1.7227372 2.225837 -0.44063815 -0.3704943 0.2791631 -3.1948106 3.979402 -1.3215104 -0.55408883 -4.2414145 -0.059413124 -0.89232075 0.1790996 -5.0504255 0.0046733962 0.21304788 1.0233932 -1.4318018 0.35328916 -1.7405466 1.1826211 -2.6584344 -1.2939851 -0.5870275 -2.7058258 3.2721813 -0.48187232 0.3331111 -2.4915433 2.0010417 -1.2472854 2.2202415 -2.986446 2.2415328 -1.0609466 -0.14070587 0.77618194 0.9890001
李连杰 -0.5772407 -1.2086221 -0.2488844 0.42646435 0.80885637 -0.27936083 0.5764696 0.6071568 0.7875798 -0.79745555 0.60848016 2.0165904 -0.47045258 0.8306823 -0.62991554 -0.021841805 -0.2928926 -0.92022324 -0.47951385 0.84945816 1.1820424 0.8285006 -0.95377237 0.13813144 -0.6090489 1.3894433 1.2592009 -0.25703096 -0.26412743 1.2536049 2.1482468 -1.6667256 0.17644307 -0.06203105 0.6898714 2.3273299 0.21065515 0.21654926 -1.0886778 -0.6310259 0.48258886 -1.1558326 -0.34015712 -0.08811877 -0.40993357 0.33144644 -0.38790795 0.62033373 0.7028112 -0.067239486 0.7878398 -0.52800703 0.16332348 -1.3185802 -0.9343145 -0.64762264 2.1134856 -0.1713321 0.73852974 0.182094 -0.17173102 0.14132655 -0.020647144 0.3436436 0.93289083 0.81394047 -0.72651243 -0.39130569 0.034409814 -0.7388018 -0.55835205 -0.1686877 -0.87360257 -0.068788595 1.4483801 -0.3938797 0.009413907 -0.44059706 0.23656876 2.7019665 -1.1911461 0.65728307 -0.29520613 0.35330796 0.22160146 -1.3257003 -0.9837239 0.8619745 -1.0764041 0.28675568 0.9342764 -2.0116343 -0.59868705 -0.16761279 0.4999614 -0.31574455 -0.23760961 0.60806435 -2.0535305 -0.38665318 1.3837739 -2.6097913 -0.12349644 -1.3084676 0.22633055 -1.6626925 -0.6891471 -1.0225737 1.1044586 -0.11136285 0.17323294 0.080554016 -0.85617715 0.18713632 -0.16783008 0.18230839 -0.14612493 -0.83370495 0.6411576 1.2787565 -0.673863 -0.8992402 0.5563161 0.57092506 -0.36293444 -0.466906 0.024473289 -0.037254464
识别 1.2553095 0.37688002 3.6291995 1.0329363 -0.10019469 1.5206027 -1.3872926 -1.7289637 1.7834438 0.35127074 1.0425171 1.0346394 -0.7589395 -0.87195355 -2.5137315 -1.2128961 -0.45093635 0.67400503 1.5591353 -0.1379771 -1.4528508 -1.43812 -1.927382 -0.26447356 0.6555728 -0.8471993 0.8874776 -0.32437027 -3.0928695 -0.73335207 -2.194724 -1.4741101 -2.1982565 -2.0288174 -0.023826418 -2.3193324 -0.533836 1.0239798 1.2251858 -0.15268287 -0.19471441 0.46855345 1.447446 -1.0546712 -0.27246213 2.9272592 0.26022694 -2.9052992 -0.78632903 1.1094104 1.6808589 0.09227502 0.52777773 -1.2901858 -2.6245935 0.44212982 -2.2889462 -1.609091 -1.0841905 0.12179362 -0.8953218 4.3109727 -1.6869981 -2.101145 1.7846745 1.3562778 0.3000485 -1.8377465 -2.5149682 -2.4312813 1.5098773 0.32745907 -0.5274175 -0.45338562 -0.16257378 0.45231664 0.6073333 -0.81842 -0.8379962 1.3083568 -1.86099 -2.1552284 -2.224176 -0.11660103 -0.75212246 -1.4690733 1.5401658 0.307841 0.49143082 -1.675965 -1.3108829 1.1682287 1.7200212 -2.2011135 1.1533518 -0.47164625 -0.4103307 0.12863144 0.23566268 -0.40460724 0.9720029 -2.960478 -1.7700617 0.8944258 -0.6805596 -1.0027263 0.22194952 -1.431839 0.09414533 -1.10658 -0.21595022 -0.586221 -0.432378 -0.93527895 -0.124879465 -0.19694267 0.07596987 -3.6594534 -2.0873823 1.0597062 3.4725788 0.8780235 -1.3561271 1.4552753 1.0537258 0.4972878 -1.1597651 0.12153706
进 -0.27713746 2.4630716 -2.34576 -2.6126287 -1.8335893 -1.970205 3.7593367 -0.9972463 -0.6081763 -1.3056332 -0.8671983 -0.7558983 0.65728205 -0.8719936 2.6482384 1.63508 -0.0097709475 0.65496993 1.0247431 -4.4634004 -0.3313966 0.808368 0.5539329 1.1295689 -0.056980513 2.1389477 0.68078595 0.8885728 -2.7522416 -0.7043619 0.75162023 0.1440387 -1.2920581 0.054499775 -0.0035013983 3.0629666 -2.5144815 -0.7259583 -1.3050365 3.4006636 0.6602168 1.7703369 -2.00557 -5.0716386 1.9550414 -3.1330578 0.91115904 -3.4331102 0.78906566 2.5465186 -0.15264098 0.41185084 -4.1233454 1.8742541 -0.6972635 2.6137998 -0.17877336 -1.2352066 -1.3623269 5.77287 0.026312148 -2.542653 0.8513305 0.84121966 -2.5343933 0.8530148 -1.9353385 0.20567451 0.69327223 0.75887096 -0.7133562 -2.354353 -0.22527584 -2.998281 -3.3377476 4.092005 -2.0222478 4.0496635 -0.781313 -3.9344177 2.2032278 -0.30802688 3.1563725 -2.539067 1.1696386 1.0936966 0.4490993 -0.4590995 1.8617405 0.14060591 2.1996112 -0.057406735 0.8685358 0.6650145 -0.79167855 -0.010755628 -1.041596 0.56515574 0.7602488 1.4277922 0.8191095 -1.6256231 1.7661083 2.99265 0.26678088 0.12409294 -1.1926898 -2.2063687 -0.7275342 -1.6064825 0.04262655 -2.5105371 0.8459088 -1.1072642 0.13261662 -0.54621625 3.3647542 1.1544056 -0.13460658 2.760478 3.3079133 3.7102106 -0.37921655 1.9111294 -1.8584645 -1.7457495 -0.8357464 -3.1401083
楼 -0.16348378 2.9429786 -2.0838645 0.70612675 -0.11002703 0.86576235 0.7944568 2.7780056 1.2304809 1.8463111 1.1601198 -0.06266903 0.1902531 3.5394423 1.454175 0.5895724 2.266572 1.8132796 0.6289894 -1.8503414 -2.1991122 4.0403376 4.306462 -3.8162558 -0.88946843 1.4584992 -1.3197699 1.9553888 -0.76000214 -0.30419606 4.105694 -0.14603555 -0.96892655 0.13853051 -2.0420458 1.347638 1.9122374 0.903697 -0.6840827 -0.52679515 -0.36866227 2.570615 -2.5664423 -3.1239965 4.7528696 -1.9759556 2.639262 1.8409674 -1.0822246 1.7967528 -0.26420704 1.6388806 2.018027 -0.7244567 4.5736027 1.340029 -2.8463717 2.2206628 0.07224471 -0.62228197 -0.23828936 -0.88538927 -0.20502782 -1.2489097 3.1803706 -4.0681353 -0.11423755 0.33072725 -1.6314874 0.0070769354 -1.2130018 1.845403 -0.12845595 -0.37246042 -0.8153515 -0.1427863 1.1646786 -2.9097478 -3.0287323 1.2629827 -1.2120931 0.94960916 -0.3596439 1.7999429 2.478645 -1.4323261 -2.1468823 1.6811302 2.8462336 0.1610528 3.5852304 -3.24538 -0.8090122 -0.7801251 -0.022530122 -1.3294224 -1.0595213 -0.43006712 -0.5093231 -3.98285 -1.0325774 -1.7760026 -0.42769682 2.2794847 3.0523508 2.4166076 -1.1129857 2.5937903 -0.94387966 -1.269343 -1.2371801 -2.077917 -0.032867577 -1.0308173 2.7121482 -1.4361429 -1.6476876 2.1183267 -0.6368416 2.619784 0.37021053 2.1732235 -1.2009848 3.9032052 -1.7776308 1.48577 -1.9954649 -0.829449
哪个 1.0498675 0.56701946 -0.6153736 0.47052354 -3.0241783 -0.7749315 -2.1422102 -1.9937438 2.552124 -2.0773754 -0.7388542 0.8241794 0.72352445 1.1582059 -2.513165 2.1852632 0.6595473 0.68065315 1.1442094 -0.2318163 -2.2612977 3.0126605 -1.7304603 0.8055287 3.6821504 4.9931383 -0.06055019 -0.052434776 0.12697138 -2.2653399 3.9037757 0.25276935 -2.5446 -2.3119466 -1.0404273 -0.28107655 2.1280165 1.2982446 1.5889118 -0.16604325 -1.9114257 -0.10646074 -0.34749708 -2.3767893 -1.1515932 0.14182068 -2.3481648 -0.34153163 -0.2418894 0.44332278 2.2354188 -0.76851904 -0.2049185 2.9154785 -0.909076 -2.350444 -2.059251 -0.8783139 1.7864534 2.348067 -2.9006066 2.4572778 -2.0434105 -2.8280387 -1.0019248 0.9748163 0.5990643 -1.0644816 1.3760206 -3.0261972 -3.9449928 1.7899326 -0.05845078 1.1861551 -2.7904305 -1.1541396 -2.8216317 -0.32564196 -0.3831364 -2.5306616 0.7061911 1.3689364 -0.94701463 -2.121644 3.5474846 -1.4572227 0.8550044 1.9652896 -2.52394 0.17798202 -0.38161615 -2.2371004 0.4964068 -1.3325585 -1.3887366 2.3154209 1.0323659 0.37070206 1.2436216 1.5627897 -0.42511088 -1.0442034 2.0777988 -2.5271575 -1.3512309 -3.509456 1.3404274 0.5805174 1.8686396 0.4438501 -1.0352212 0.49009416 -0.03836187 -3.2672145 -1.6276479 1.7619478 1.0421474 0.8646849 -1.4046361 0.83756465 4.224986 -0.37739718 -3.581639 -0.40029794 0.191615 -1.5556604 0.8209691 -0.15101568
之 -1.042766 0.14446339 -5.294488 3.065789 -3.091568 -0.43496525 3.8237522 0.44430655 2.0543087 -0.73449457 0.29203796 2.7128673 -1.8892512 1.4752752 2.9740632 -1.4352119 5.595694 -3.547237 -0.65615964 -1.5934741 2.999951 0.22555372 -1.93185 4.2385535 -3.6350753 1.0725589 -0.31625924 0.4364902 1.3034022 -0.024515519 -0.9167113 1.7100401 -2.3032062 2.0491438 1.926585 -2.9054632 -0.08759465 -1.9294252 -0.5473864 -3.2234554 2.3694901 -2.0098798 2.5576258 3.2210925 -2.6549072 0.27228993 2.861425 -1.9388503 -0.18942899 -3.1322489 -0.40945828 1.1154325 1.6511787 -0.6647313 -1.7043626 -0.8466183 1.8521917 1.0986949 4.285965 -1.83728 0.6889572 1.3410726 0.6282022 0.7015359 -0.47079414 1.5403804 0.43453497 -0.98129994 -0.6385142 0.69148695 -3.1734693 -2.8099434 -0.06138527 1.4098531 1.2235547 1.7004505 1.0610273 -1.6704679 0.5425925 -1.8742064 0.020742005 -0.6559231 -1.6551957 2.7102485 2.4369493 -2.0124426 5.6522245 -0.5792109 -2.638065 0.31683427 3.288738 -0.15918756 2.2236 0.8672647 -3.054233 1.271218 -0.13242175 0.43674627 1.4252983 0.39299887 4.17331 -1.0705402 0.44937113 -0.9130707 -2.7576685 0.42012638 3.4329603 -3.0960352 -0.1922162 -2.5261955 -0.67503005 0.4423042 -0.24626803 -3.9154625 -2.6953516 -2.2614496 2.6779575 4.4216585 2.6778684 0.2305752 0.5464638 4.712122 -2.5071564 1.2104434 1.0781866 -2.7438016 -5.4056444 0.24554656
小鸦 -0.011366049 -1.8338403 0.6921602 0.24806598 0.25928253 -0.48224095 -0.7767776 0.5231361 -0.045227017 0.5443402 0.4203914 -0.335742 -0.51583135 -0.07508752 -0.30527687 -0.14462003 -0.68615425 0.40466952 1.0528727 0.63094205 0.30681065 0.61328524 0.10399783 -0.10686527 1.5546052 -0.14140366 0.34111127 -0.5814531 -0.02002337 0.22888623 -0.4758481 0.13998935 -0.7809312 -0.11434219 0.030320209 1.0684055 0.61151534 -0.80369633 1.4435151 0.5025812 -0.7309323 0.17464109 0.28805324 0.22856994 0.72513944 0.33310178 0.08716873 0.1845267 -0.6392144 0.12953205 0.26728952 -0.18565953 0.12309233 -0.56902725 -0.2200984 -0.7563381 1.259078 2.3471549 0.724734 0.18169188 0.21431553 -0.16554153 0.0797455 -0.45889518 -1.5954773 0.98248655 2.4575515 -0.19709665 -0.8894768 0.5148352 0.69303983 -0.67758954 0.042006195 -0.38070202 0.43008274 0.21978498 -1.3960356 1.2341387 0.59679735 0.22309458 -0.27358308 0.115839 -0.08954972 -0.07188483 0.4908972 -0.40385005 -0.24717428 1.9103986 -1.4289539 0.39838573 -0.72740835 0.64648354 -1.1845446 -0.29318884 -0.12749527 -0.07749018 0.28547275 -0.096808195 -1.3116229 -0.23927139 -0.52576953 -0.4770017 0.53973854 -0.43680742 0.38443834 -0.44973397 1.7614995 -0.40875536 0.46681377 -1.6048131 0.25181854 -0.18572839 0.6210543 0.42498532 0.107063584 0.34054607 -0.50629157 -0.7511434 0.4524547 0.76282585 0.28103948 0.06389619 0.69638515 0.12746091 0.6051781 -0.9165951 -0.5894681 0.34103346
倚天 1.1016546 0.50162315 1.515191 -1.6242622 1.6711798 -0.39482018 -3.664917 1.2164632 -0.6852777 0.23473886 3.3207774 1.3070908 1.0998486 -1.7516446 -0.7416654 1.7358848 -1.0742623 -0.64667094 -1.4300623 -0.24913295 1.8553694 -1.1988581 1.9001143 4.818952 0.2339528 0.8978539 0.522602 -1.9572396 -1.1914537 1.4566095 0.11172517 1.0902779 -0.8719966 -1.1654748 -1.266404 -0.08465519 0.008056742 0.16937712 -2.0875766 1.1957914 0.011112228 0.16415255 -1.095469 1.3371612 -2.0751426 0.6889159 0.64584076 0.46892613 0.38715452 1.3453244 1.7551932 1.2366523 -2.027788 -2.3514717 -1.6406941 -0.6726109 -0.75281984 0.2496023 -0.53002787 0.884716 -0.87459797 0.08039894 -0.025517754 1.5541711 0.4907093 0.663315 1.3383912 0.36067563 -1.2865765 -0.003213967 0.5991181 -1.456704 -1.632972 -1.6328481 0.83344096 0.2725215 -1.2980475 -1.0483148 0.74373126 1.3063539 0.15193743 -1.7025871 -0.3949134 0.7793939 1.782936 1.6595452 -3.0581875 -0.51796895 -1.3604189 -0.21739133 1.4669348 -0.6762947 0.07274844 1.5325583 0.2682448 2.423311 -1.2151581 1.3855317 1.183302 2.8974159 -2.7360272 -0.46025538 -0.9152449 1.8235997 0.5465218 -3.1720097 0.9803683 0.54753244 1.303005 -0.8847746 1.5036477 -1.4509987 0.35535973 0.17958133 1.0382515 0.84239215 -0.660835 0.26262084 -0.27504027 0.6698815 0.23158292 1.1297667 -0.701627 0.73403645 1.3766242 -1.5268476 -0.39117086 -1.3627476
七十八 -0.4522885 -1.9072366 -3.123007 0.9764504 0.40181434 -0.6009677 -0.19255082 0.38935694 -0.9052648 1.5906126 0.111551456 -0.4513446 -0.041074738 1.5141474 0.569436 -0.06447037 3.1049252 1.1129525 -0.88098186 -0.5688579 0.5072034 -0.21452719 -0.8543773 2.612817 0.49324554 -1.1070402 -1.4550619 -0.734793 2.752068 -0.119870394 2.4678884 2.313963 1.4085137 -0.016310833 1.3945932 0.28355575 0.22835481 0.51419747 -0.79681015 0.67593247 -4.4219027 -0.1789185 1.167944 -1.3060191 -0.23419818 1.5666994 2.8890235 -1.4414109 1.249131 1.260127 0.6012113 0.69074786 -4.089892 -0.66063 1.4536493 0.429753 0.8661668 2.2867782 0.53049135 1.3917209 -2.0737944 0.35719594 -0.6347446 -1.1176498 -0.2689335 -0.53500885 -1.9163433 -1.2239187 -2.0168276 0.2867001 0.5099991 1.1995808 0.49968895 0.33052817 1.7113692 -1.4707636 1.7525655 -1.253805 -0.07070721 -1.7857533 -1.3825728 1.5833247 -0.6365742 0.93140566 0.83415437 -0.35889965 1.5768826 0.31462875 1.2338978 0.18939981 -0.5829484 -1.2683487 0.45951974 -0.4113409 -0.38633767 -0.23994318 -2.7310743 -2.8468099 0.83822984 1.376654 0.6001739 1.4118346 0.12045404 1.7698627 -1.3117061 -0.738056 0.6665142 -1.3674408 0.5844629 1.6891297 0.8980301 0.47655937 -0.52704483 0.38528743 -0.41170615 1.5299666 -0.948382 -0.50284904 -0.11939838 -0.9019647 0.6626187 2.8866951 0.97183484 -0.46856782 -2.5308518 -0.26734042 -0.61817455 0.8231727
档 0.08184927 0.37220463 1.6457474 -0.8141765 1.2253612 2.1438117 -0.2942099 2.4059308 1.2077762 2.9189775 0.7050506 0.5427277 -1.456687 -0.9077129 0.27795228 -0.56310654 -0.9492253 -1.3895206 1.4955531 -0.61571145 -0.7432132 2.829229 -0.2825642 -0.15450384 -0.74276745 2.1988854 0.60937303 1.6551507 -0.68858755 -0.32135177 2.43016 -1.0415133 -0.17472076 2.1659656 0.41843423 -0.28734303 -1.2451615 -1.5333188 0.78684115 0.026611798 -0.5635724 -3.1969097 -0.2605252 -0.2833063 1.5859792 0.20466273 2.7444336 0.8946725 -0.091383785 1.1556503 0.41828388 -0.24089059 -1.3937098 -1.264408 1.385733 0.2215447 -0.5227845 0.09076708 0.8202333 0.73199236 0.91887933 -1.5478983 -0.88992256 0.25641567 0.0073307827 -2.2340667 -1.980176 0.89941967 -1.77502 0.40550175 -0.832068 0.49555483 1.1643747 -1.0590055 -0.16741979 1.3810986 1.4224691 -0.13742384 1.1044816 1.8681599 -0.8830504 -0.271227 -1.267442 0.67668176 1.0694307 1.0515949 -2.2903543 0.64592844 -0.62875026 -0.69599515 1.6988009 -1.3309586 0.75852203 -1.1280833 0.12628873 0.30176207 -1.2453455 -0.5200851 -1.0819515 -0.99550813 0.31363174 -1.892049 0.91910255 1.0094844 1.1194754 0.24995202 1.3206469 0.41591993 0.28641385 -0.18274084 1.0077462 1.4667205 0.92395896 1.6953636 0.9813103 1.3324 1.2837238 -0.75075245 -0.80475557 -1.8557518 -0.7354526 -1.0802795 -0.9809378 1.4043411 -0.26455453 0.40037718 0.4896557 -0.9189362
怎样 -2.748987 0.42493823 0.25450072 -0.2273836 -2.7359066 0.4958958 -3.2140405 -0.7789478 -1.0888197 -1.2037687 0.64963126 -0.3508357 0.5210671 0.2893887 -2.1112869 -0.34075555 -0.43816516 1.5971825 1.6901959 0.95035654 -3.3191197 0.82432055 -0.9524673 3.8636441 6.0328374 3.5241446 0.5333296 0.7707093 0.86902916 -4.848226 1.8477985 3.236738 -3.8103118 -0.6312509 0.8703991 -0.83221406 0.39099482 0.99864984 -2.3057055 -1.1288986 2.587327 -0.815212 -2.4932153 -0.34900612 -3.303382 -2.339742 0.5460714 -1.0441692 -1.2134923 0.86269546 2.931984 -0.7864735 0.5484788 1.2372569 -1.5796893 -0.6311993 -1.7705787 -2.0955243 0.04977326 -2.225937 -2.0793524 2.5340645 -0.21314485 -1.8100431 0.002220494 0.9414727 -1.5227369 -1.2260497 -0.10889582 -1.0278654 1.3089626 3.3214235 -2.6057286 5.371593 2.4927745 -0.6652983 -1.542997 -0.53427196 -0.6796181 -2.7261288 3.6345174 2.5191522 -1.5082228 -1.0895735 2.7297387 -0.10722581 1.0007392 -1.3441942 -1.861439 0.04307938 -1.6549852 -0.04986094 -0.35127592 -0.44971323 1.0886483 -0.01974597 -2.2368279 1.88344 1.8891069 -2.554292 -1.8249214 1.3706118 1.861206 -1.099294 -0.36879563 -5.5146523 1.6166284 -0.50672287 1.6392244 -0.3195866 0.102657005 -1.8484399 -0.43347365 -0.43691313 -2.8901176 -0.8029416 -0.8922292 -2.0317044 -1.0200404 0.058256343 4.3076706 -1.674631 -0.8025147 -3.3059142 2.7005858 1.6991292 1.0492841 1.3570167
天猫 0.75461906 0.77269846 1.2489431 -0.025702339 1.9969642 0.11927081 -2.5420036 -0.79253584 0.8140527 1.0234966 1.1830002 -0.39334834 -1.0552384 1.423084 -0.73800915 3.2791553 1.4320897 0.30715257 0.7740349 -1.3143673 0.6208455 1.5363964 0.13807167 -0.79817426 1.6244682 2.0023875 0.3395022 -0.74903333 3.3945656 1.6802865 1.7378947 -1.3956641 -2.094244 1.1286097 0.5925322 -0.0044408147 2.0810938 -1.5081174 -1.1114898 -1.5141546 0.16814965 -1.1012532 1.7684507 1.2589322 -0.80932933 -0.6926046 -2.8910167 -2.1280553 -0.32359147 -1.2954214 -0.95058906 0.9281026 -0.53260195 1.0187309 1.662749 -2.1292448 0.9845481 -1.9332219 0.05608667 -0.9405997 0.5522123 0.40214708 -1.5447589 -0.8740644 -1.3796984 1.1381543 -0.56800985 1.370704 -0.44624588 2.0013678 -0.03177027 -0.6895068 -0.06466158 0.35240704 0.16311443 0.65123814 1.16331 -0.13943642 0.59888005 -0.6983907 -2.9451528 0.22504568 -0.71482575 0.34743866 0.11539273 -1.7297417 -0.8536695 1.8639812 1.7030171 -1.9578307 1.0480537 1.8770095 -0.18020387 -1.9714109 -2.6957448 0.2728816 0.60746574 -2.1651046 -0.26943845 1.0412219 -2.3196428 -1.3845967 -0.517277 -0.8270821 0.62867206 -2.7050495 1.8751184 -0.5564206 1.7585328 -2.4850395 -0.84104264 1.387212 1.6868975 -0.7745718 0.25704935 -2.375781 -0.9923626 -0.1684213 -0.4256345 -0.67009354 0.7101969 -2.1822572 0.5183915 -0.2695102 2.2634404 0.8408006 -0.31820607 1.5966197
电脑 0.23080514 1.9427389 0.9289573 1.4497799 0.08133539 1.1068562 -0.42486474 2.5346892 0.042819098 -0.9235857 0.6839876 0.5042457 0.7331673 1.2346879 -1.6859761 0.11395238 -2.0843413 -1.6968331 -0.1316886 0.7072885 -1.6984847 0.07409289 0.7416536 -0.53056204 1.5937316 0.8251224 -0.037116576 -2.1904366 0.5909579 -1.0694003 -2.8106852 -2.7197704 -2.1823335 0.9630693 1.251383 0.26566964 -0.6027479 -0.4868519 1.2670738 -2.0965521 -0.25877592 -0.3923158 0.9538549 -0.08543741 0.9130208 -2.7792432 2.415846 2.660292 -0.48468763 0.15124056 0.26043084 1.8396493 -2.1477695 -1.9463124 1.1400124 2.2305076 -1.6720328 -2.1338334 0.44660378 0.92574894 0.94505376 1.0934495 -1.5978886 -2.5901616 -4.8001614 -0.50583935 0.7562006 0.1737877 -5.616031 0.1644203 -1.046756 0.40016848 -0.5073089 -0.6205124 0.41229242 1.0101498 -0.1597822 -0.32612774 -0.0035457572 1.0572753 -5.927861 1.561698 0.29284772 3.4103243 2.288318 0.26892114 -1.1655123 1.7405232 -2.3055906 -0.57212913 1.9151627 -1.9695015 -1.5387834 -0.015235273 -1.5901952 0.54882216 -0.07729759 -1.3480208 1.5364337 -0.890675 -0.7477002 -3.7461848 -1.8792984 1.3942817 1.1846395 -0.32332614 -0.7010171 0.538253 1.9089553 -0.5278054 -1.1561563 0.45295328 -1.411831 -0.2508523 0.72772026 -0.84600335 -1.4464959 -0.29609945 0.6969864 -0.50830805 0.5196356 2.681167 -0.09575138 -0.89194906 1.2306937 -0.31213537 -1.7525216 0.63588595
吵 -0.07453528 -1.6517731 -3.0406494 -2.3522608 0.3740425 -0.8966109 -0.37013093 2.2016702 1.043982 2.751443 -0.937992 -2.067386 -1.9799858 -0.288215 -0.3551535 -0.9555763 -1.5311735 -0.080573566 3.578597 2.7859373 0.52502495 1.736022 4.3277345 -0.0625863 -0.5267444 -0.87945676 -3.7760468 -3.4469414 -1.9065897 -1.5492947 -0.23804747 -2.6302884 -0.09757587 1.1948282 1.1746815 -1.1437575 0.8689733 1.9459363 2.3064928 -1.442974 -2.2841256 1.163573 1.4950769 -3.3326457 2.7396748 1.5724952 -2.095927 0.014817484 2.626286 1.0728948 -0.8305093 0.27018368 -2.2533417 -0.15617245 3.0733788 0.25258785 -1.4612131 -1.3622571 -2.7044048 -0.5133351 -2.4222467 1.4768671 1.4881358 2.3047802 1.0428301 -1.231336 2.2200384 2.6212158 2.1023927 1.2266518 2.2789226 4.255629 1.5574769 -0.37449455 -0.36159235 0.22077858 5.0975947 1.6693314 1.363629 -0.5052681 1.8195595 -3.1116688 2.5007927 -1.040882 1.2488413 3.4582903 1.7420263 -1.837377 -0.76781976 -2.0724013 -0.5732442 -2.9863012 -1.4073287 -1.6082802 0.86839855 0.4619239 1.3078432 0.8758095 -0.63281024 -1.2943329 0.7256774 0.12775688 0.3857193 -1.9440377 1.7132491 0.9355123 -1.3352143 1.0144246 -1.4782934 3.290984 -1.3140452 1.2831784 0.44617045 -1.2458179 0.4055102 3.8643997 -0.2810018 0.68169636 1.6244935 -0.5687001 -0.82854605 0.19673952 2.3202002 -1.1832647 1.4259158 3.6280181 0.618557 -1.5766722
无 0.4389189 -1.826822 -5.1521406 3.2713628 -3.2156608 -1.2476155 7.3580747 -0.80520415 -0.87078893 0.8703055 -1.3139713 -1.7222573 -0.25013116 -1.5688673 -3.3273702 0.19021152 1.0076162 -2.1181197 -1.5065583 -1.9094623 0.66066575 -2.6945739 1.18646 -0.12948477 -5.9736733 0.22049813 3.1593187 -0.45253304 -0.9471309 -0.9815454 -1.873565 0.54382175 -0.3740108 0.67931414 -1.9618244 -0.21367522 -1.5225334 2.3969066 -0.8209674 1.7105094 3.2728348 1.1552463 -2.5594182 2.632673 0.78150296 2.6769772 1.6747513 -1.9528037 -1.968858 1.4646405 2.4896228 0.05588191 -0.25772098 -3.361197 -0.94908476 0.28059676 -1.3114905 -0.20208773 -0.06883856 -0.72516847 2.0897384 1.0661827 0.5992449 0.9877183 0.37351894 3.5292194 2.5859768 4.652038 -4.475798 -5.981285 -1.257342 -0.3340181 1.5756866 0.29164913 4.322452 -1.3588022 3.4580674 1.994798 -2.46998 0.08868828 1.6186008 1.0968944 -1.8330934 1.8352472 1.0134931 1.473602 4.4769783 -1.870692 0.0023587814 0.019157039 0.39944762 1.5981543 -1.9614044 0.37883997 2.625466 -0.29076287 -1.5766481 -2.9837325 -0.7699914 -0.5876641 -0.36274764 -0.64548874 0.29096735 -3.3819594 0.6791954 0.16868253 5.7391095 -1.4491545 0.6584038 -7.050011 1.7437387 -2.2932458 1.0972896 -0.032378055 1.6881704 -2.1104965 -0.257096 3.1461182 4.0722647 -2.1991599 1.2872838 1.9670274 3.0480812 0.760113 0.15267526 0.3829755 -0.6566389 -2.2346802
说 0.4790889 0.3383982 -1.1904014 2.4626527 -1.0881095 0.30150878 2.7780006 -0.5168982 1.1970521 1.3919845 -1.3597217 1.6509732 -0.9299991 -2.4573488 -1.0316467 0.7750781 0.33664483 0.2548043 2.9306052 -1.1391127 0.43959558 -3.049439 4.714852 1.4010413 0.5105414 -0.26410115 -4.010293 -1.5129106 -1.0685518 -0.9444894 0.068750545 -1.6770074 2.5688918 0.28961617 -0.1926497 -0.95557785 -1.5280541 4.080562 0.59275866 0.0721957 -0.56275415 -0.84515107 -0.49848008 -1.1813221 1.0448846 1.7807187 -2.5192974 0.5381211 1.2447039 2.1046908 -0.5635275 -0.58106583 1.7055603 0.44442236 1.2999783 0.46850422 -0.20315193 -0.45533448 -1.0235392 -0.83665854 -0.3317378 1.1706954 -1.8542734 0.25867057 -2.1743615 -0.46239665 -1.2081652 0.15079865 1.5340153 0.8117502 1.4416778 0.62139314 3.172424 -0.16936323 0.86894524 0.02852428 4.061538 1.131934 -0.7952746 0.48935238 -0.54484385 -3.5304575 0.054431155 -0.074187055 1.3683378 1.0703838 0.24929373 2.907879 -0.6107685 -0.9420369 -3.5612369 -1.041304 -3.5685108 -1.5269303 2.1787808 1.7720704 1.5760862 -0.5937559 -1.123057 -2.655983 0.35351112 0.5241698 -0.9154323 -1.2738307 0.5436284 -0.56063974 0.85576653 -1.0771956 2.4696257 0.9452662 -1.9126661 -0.6138788 3.4766784 -2.1968684 0.6845582 3.8410802 -1.3348703 -0.495133 0.8307962 1.5907626 -1.0914747 -0.6796401 3.8184602 2.0105143 2.050664 0.27888215 2.1974955 -0.47731084
傻 -0.103819944 0.14805251 -2.3905232 -3.6179538 -2.703177 0.14562222 -1.523034 -1.034128 2.2294295 0.08974469 -0.93684644 1.0439402 -0.8287952 0.018484004 -2.0643008 1.3052467 0.6975239 0.9249646 -3.1691809 1.1978542 1.4330118 -2.2757356 0.48721644 0.8713257 0.8898604 -0.09625993 -2.6105418 -0.015363826 0.04522655 -1.04226 3.872115 -1.5566179 0.3359954 -2.9828837 1.6230595 3.0150235 1.0140293 0.39413926 2.2453718 -0.62442183 -0.560825 2.347063 -0.18441013 -1.2593442 -0.15020646 -3.479277 -0.03711929 -0.06415809 -0.52244204 -1.6161482 0.84755516 -1.6233523 -1.4426419 -0.05314275 -0.39390364 -2.8339653 0.45136678 -3.1113498 0.8382258 1.1216443 0.95037377 2.439811 0.12708938 0.08774374 0.31714144 -0.25276405 -1.3890231 -0.07010959 1.5950406 -2.2073703 -1.1476258 -0.79071474 -0.9418813 -0.26236355 1.8610821 3.1822028 0.3389412 0.8601776 0.0897934 -0.96069336 -0.29504836 -0.2860853 -1.9840019 1.1344374 1.7444763 0.2049367 -1.1058228 -2.2980254 -0.28804553 1.0024213 0.5054186 -1.8129647 -0.8492495 -0.08063242 2.8374424 -0.33301395 0.64647585 1.4880958 -1.7949775 0.1890166 -3.91768 3.4748268 1.6344004 0.47041747 0.26903248 1.0972669 -2.2341506 -0.67409045 -0.4361831 1.0559937 0.2399873 0.80184615 1.5147779 -1.6736586 0.23610446 2.3074424 -1.7370905 0.7215472 0.5531893 -1.1526778 1.537098 -2.264248 1.6052182 -1.6917174 -1.7252527 -0.94896287 -0.84441894 -2.1441588
明天 -1.1008605 0.6481495 -1.3154188 -2.5579839 -0.54921937 0.27795765 -1.9864928 2.3503957 3.623978 -0.3794467 -2.500804 -1.1681467 0.31562307 2.9120831 1.2177927 -0.10324756 -5.0393667 0.943098 1.1111389 -1.6275853 -2.0955148 0.3157875 2.8427904 -0.0023073643 3.4633944 1.4423804 -1.8971866 1.5685389 1.0099913 2.4944165 -2.3283596 -2.8780477 1.4594274 0.90311575 0.66237277 -3.978843 -0.117249794 0.5964684 -0.4636927 3.3516064 3.8776176 1.64495 -0.20803446 -0.6321521 0.27063763 -0.17935137 -0.83654296 1.1864605 -0.008766204 -1.1034077 0.76764005 0.7451803 0.33920774 -0.4614963 -0.4076479 -1.5293701 -0.0072306795 0.9094753 -0.775854 -0.32060593 -1.13207 -2.025741 -0.2260549 0.20854816 -0.873137 -1.7955967 1.4829898 0.4236756 -1.0040281 1.6152788 1.4230368 -1.4431016 0.46227786 2.6586394 0.12413193 -2.002985 1.6691469 0.023740945 0.08883994 0.39181304 1.7763495 0.62023747 2.5151672 -2.5425446 3.845847 2.394846 1.7258859 0.93536484 0.23894186 1.8947208 1.2989922 -0.6278225 -1.0080546 -1.872134 0.09885031 -0.85256934 0.29281354 -1.6380473 -0.3113884 0.41260836 1.3976692 -0.4676815 1.6964728 1.270762 1.3928052 -0.6156276 3.1123137 0.5172852 1.286615 1.6084938 2.2814946 1.3974991 1.0745356 -0.9940219 0.38359132 -0.012914117 0.53285384 -0.3977476 3.2773561 -4.073981 -0.4736373 2.2006776 0.65646404 0.23055066 2.5370085 0.929064 -0.03479191 1.2035005
爱 -1.8281034 0.5749213 -2.202008 1.1156843 -2.2428546 -0.41668513 0.4001753 0.36070302 0.8745785 2.190515 -2.1133537 0.80659723 3.6804738 0.58322906 -1.0265335 1.5248495 2.1695693 -1.0902877 2.0075684 -0.2982311 1.3869073 -0.9555757 1.4843976 -2.162404 -0.59132075 -2.113482 -0.021287408 2.3730636 0.9203196 0.33230722 2.906034 0.8983889 1.4834274 0.10999469 0.19989425 -1.5364999 0.2295041 0.6019197 -3.0715091 0.07421571 -0.7844134 3.1426518 1.9630462 0.9868236 -1.8843496 -1.8171527 0.42782483 -0.79080296 -1.0693702 -1.7062353 1.2806876 -0.6948928 0.7701575 -0.2476 -0.6798293 0.019694736 0.84376085 0.12829866 0.44294202 0.653184 -0.24893859 0.068226315 -0.29651138 -3.6919274 -0.049421802 -0.60467964 -0.2758887 1.7180078 -2.3302252 -0.17442216 0.7489949 1.9195307 0.06606529 -1.9519916 1.0380068 1.8994316 1.5921916 0.937652 2.1773741 0.1982278 2.8184912 -0.30533782 1.200314 2.8219392 -1.8120631 1.576142 1.0742161 -2.8378584 -0.7341294 1.2678587 -1.3676982 -0.2822867 -0.62031454 -0.83559877 1.7086668 1.9920719 3.1146505 2.2248235 2.674624 -3.0644727 -1.755533 2.6198325 -0.27003923 -1.5240326 1.6081251 -0.12108728 -2.0666387 -0.5023457 1.9145261 -1.671407 3.2258155 1.7032202 1.1038339 -3.959533 3.2011156 4.8116937 -3.0758495 -1.6018487 2.2954159 3.7813563 -0.7332119 -2.8654943 -1.9729133 -2.439964 1.1498632 1.0311528 -3.2700963 -0.05881289
老 -1.2332891 -1.5262779 0.075676225 -2.3329334 -0.080218524 -2.3779843 -0.7840333 -0.36701632 1.0086088 -1.8001213 0.11094721 1.1526603 1.6583794 3.2361958 -1.1317927 -0.65201426 -0.8210452 1.8771024 -1.1125369 -0.9010653 -0.05687559 -0.31140873 -0.29118457 1.4603947 -0.5190526 1.3164929 -1.7836187 -1.5583261 -0.6452173 0.45170173 2.301976 -0.88000923 2.4892411 -2.3783119 -1.3540064 1.2014413 2.3819494 -1.5785837 0.13244782 -2.4983137 1.4492229 3.1602402 -1.2305381 -3.0718272 1.3027401 0.020980012 -0.9468683 -1.1168553 -0.78021073 -0.778274 0.9264407 -0.08350578 0.4393217 -0.1304436 0.045428865 2.75993 0.14988033 1.2839016 -0.81130534 -0.72675097 0.13065214 0.5182542 0.44617015 4.68209 0.5751355 0.014239379 0.40712133 -1.5148472 3.1465611 0.35788488 -1.1231085 -2.3404357 0.11845865 -1.4174318 -0.51327825 0.40542617 -1.2505951 0.59818214 0.60058665 0.18032494 1.1127856 1.1769482 -2.7726889 -1.7031606 4.0738473 2.2863123 1.9096047 -0.99476004 0.13802056 0.85029465 0.21984383 -1.418038 -0.6057612 3.5801055 0.074347734 0.6515957 -0.9231574 2.3612165 0.5682547 2.2741227 -1.9048615 -1.6509045 -1.4306331 -0.8447948 1.8183885 0.9988703 0.7663973 1.4011472 0.8869679 1.39546 0.42876306 -1.0921837 -0.15804705 -0.9480109 1.0281922 2.1560376 -0.9610294 -0.9716051 -1.5440843 -0.7953272 0.023007669 0.78970903 1.2560397 -0.63527834 -1.4417074 -1.2348889 -0.19352123 -1.0603709
绿色 -1.1490154 1.2124121 0.52872765 0.53317755 0.75111145 1.2489979 1.6336093 1.6110867 1.5463501 -0.70455503 0.28192133 -1.2146559 -0.8513516 -0.8099249 -2.0764966 0.8210593 0.06645776 -0.00052400655 0.29633337 -0.73516047 -0.5712442 -0.054682635 -1.7633033 0.303237 1.4521022 -0.12643678 1.5834674 1.0358421 1.1854155 0.26027244 1.0506738 0.09816578 -0.5844611 -1.0217465 1.013854 -2.032523 -1.6762335 0.38716015 0.9548551 -0.7311956 -0.91766894 0.50606805 2.5657482 -0.97604 0.5061926 0.71719676 2.0488524 -1.1617804 1.6163659 -2.6963756 -0.13277465 0.66337466 1.4394537 0.0111091165 0.65184385 1.2085412 1.9023241 -0.98424244 -0.0934744 -1.6323857 0.39445594 -0.37041274 2.1102128 0.51209915 -0.32058728 2.3462996 0.102519654 -0.784272 0.78747845 -3.2739563 2.1499486 -0.93011683 -0.6733 -1.4431443 -0.070206314 -1.5750909 0.7611031 0.18930748 0.6548005 0.94996923 -0.85781324 0.14595115 -0.8016647 0.35278705 -2.9829538 2.123081 -0.14924651 1.0583344 0.85726416 -0.5658336 1.3853062 0.43471676 1.2391438 0.41006845 -3.0373166 1.1475041 1.4700172 -0.44720638 -0.26326713 1.0217807 -1.0207129 1.5849012 -0.121008545 0.8046698 -2.6834404 1.6671361 -1.8742931 1.4585111 -1.1398079 0.6503724 1.3724687 -1.9982419 -0.58346635 0.43332252 -0.027507817 -1.7445655 -0.42666948 -0.32305533 -1.0251669 0.9778391 1.0971074 -0.42514756 -1.4978287 0.5443293 0.017079279 0.2054856 -0.3900583 -0.49775958
喝水 2.330326 -0.0007158662 -0.16759332 -1.9197302 -1.423981 -1.015225 1.4696889 1.4669701 1.8716074 -1.2668871 -1.4839249 1.1442112 0.090826884 0.15166435 -0.35068718 -2.473845 -0.085043296 0.2647133 2.026047 3.3480895 1.3048534 1.4022523 0.57522666 0.39158958 0.43754655 -0.13758461 -1.9259654 -3.1145625 -0.81056446 -1.102892 -3.167767 -2.1535385 0.7649551 1.6121097 -0.10655188 -1.3741777 -1.6107368 -0.81883603 1.5159521 -0.44420093 1.7375661 -0.23915994 -0.010545289 -0.123234935 2.2838914 -0.40389502 -3.210015 -0.4397427 -0.53757775 -0.51229554 -0.7256602 -2.1060915 -0.19332518 -0.048139513 0.94071436 -0.83011335 -0.65996224 -1.1546303 0.44419333 1.3962293 -0.3856718 0.7357902 0.96367806 -1.8035043 -1.147761 0.9169149 -0.99828154 0.3285301 0.95048606 0.9529588 1.1789111 0.69481593 1.6003917 1.1409534 -0.5953047 1.7548852 -0.4023101 -1.8560485 -2.667437 1.5423456 -0.017311558 0.67352873 1.5762435 0.9475951 0.8903551 0.64914304 1.7941911 0.037770767 0.49917358 -1.735277 -1.8708155 0.51887494 -1.2685279 -1.1933509 -0.733252 -0.029097578 1.4628831 -1.2571942 -0.54359937 1.9679698 -2.2564344 -2.150676 2.9065304 1.8448513 2.4930267 -0.101521105 0.73621774 -1.4056934 0.011733494 1.4909253 -1.4884133 1.9314665 0.16161454 1.2206715 0.79632103 -0.011132513 -1.4799979 -0.38160792 1.1032337 0.34748685 -0.034258004 -2.0513098 -0.23465133 1.6792608 -0.049366396 2.8432739 -1.8605033 -0.43656912
调低 -0.61463535 1.9285309 -0.7548815 1.5308771 -1.8477339 -0.79235864 0.80359596 0.6635438 2.6730645 0.5373377 0.18126117 -0.30145127 0.8975576 -2.7988696 0.2898626 -1.1299046 -2.2385468 -0.14138244 0.1961517 1.1040387 -1.4878354 -1.2463564 0.4535791 1.5142882 0.62194353 -1.0146704 -1.9482645 -2.3761263 -4.3933578 -0.3816704 0.9695612 -1.9189526 1.6960988 -0.008660721 0.32975572 0.69486886 -3.1912196 0.014093621 1.369334 1.2283024 0.113567196 -0.15730268 0.058524206 -2.461213 0.68802685 1.574582 -0.97582376 2.126196 -2.8461177 2.7583585 1.1310314 0.21552318 -1.7524905 -3.3593242 0.8029817 2.0999532 -0.9184362 -0.48148772 -1.3105932 1.1873784 -0.8862201 3.2725601 0.6546589 1.7988243 0.040112607 -3.55736 1.7015783 1.4530677 0.6185854 2.128593 1.5487504 -0.45778713 -1.1095705 -1.5110338 0.6771054 1.752694 -0.17557506 -0.50875145 -0.8760065 -0.35566592 -2.63686 -0.29413006 -1.7125758 0.11364694 -0.34018525 -0.86992145 1.2357051 -0.3814626 0.39140618 -0.01661648 0.9734127 1.2286857 1.9063166 2.1937706 1.0044503 -2.8950036 -0.50402766 -2.3777485 0.67674613 1.1963074 0.46739054 0.40608776 -0.66833264 0.6058005 2.3426485 -2.2345574 0.17723736 -1.9430351 -1.6574135 0.6304778 1.2948335 -0.5447245 0.15309171 -0.13777623 -1.2949195 -2.5977757 0.35408717 -0.47479454 -1.5689712 -0.4260872 0.2891089 1.6043576 0.7410725 -2.24385 -1.3719596 -1.1529609 -1.4987849 -1.1591296
了 1.1730728 0.28394172 -0.73373896 0.55777097 -0.57946754 -1.81485 0.27822363 1.8906834 -1.2974622 1.9047621 -0.4781593 1.3805267 -0.60539603 -0.20046975 -0.014741387 0.67829645 -0.5396264 -1.2638857 -0.8885541 -1.7232087 -1.6687014 -0.13675044 -0.059392095 -0.26010567 0.11829908 -0.6320574 -1.1535653 0.29416272 0.3775701 0.30230364 0.050274976 -0.6949567 1.786941 1.5521281 -0.89421475 1.8604853 1.1752291 -0.43340158 1.5341642 0.9582665 0.5913466 -2.3782284 0.5853789 1.7297788 -0.41547745 2.1373336 1.213491 -0.48006243 -0.103211306 -0.06426148 -0.04516351 -0.5481674 0.13481297 0.76956874 0.35862806 -0.2847178 -0.47526422 0.27712995 -0.8463442 -0.5735074 0.69595057 0.38813323 -1.2047228 -0.008081887 -1.1131485 -0.50119483 -2.8416882 2.733337 -0.5732067 -0.9259841 -0.46139523 0.019389302 1.8925604 0.5778254 -0.4665772 -0.3406908 0.56432724 -1.5844775 -1.1497506 2.1637359 0.2260975 0.3142984 -0.4306086 2.0903187 -0.82835084 -1.5421559 -1.5174817 -0.22157292 0.31324014 -0.7922181 3.5908513 0.22911568 -1.5789827 0.11244377 -1.3960496 -0.6141693 -0.55143255 -0.41481546 -1.4059411 -1.1627448 -0.19863163 0.860149 -0.9577675 -1.1973312 -0.4458588 -0.29348868 -0.9897401 1.0124741 2.1166356 -2.0547886 -0.7588141 2.3794372 0.71243733 -0.47013256 1.1512156 -0.5158841 0.29646486 1.7358428 2.7799819 -2.0745857 -1.4221298 3.041561 3.3462536 2.8165486 0.13401036 -0.84640944 -0.91636896 1.4097406
只要 -0.47119498 0.868525 -0.5228983 0.3042992 -0.80053735 -1.2056928 -1.8719656 0.82630646 0.70854664 0.1489383 -1.1306695 -0.5239041 1.9216177 -1.2279924 0.2216907 0.010468774 -1.6742374 -1.3530238 -0.74040395 -1.251944 -1.2846893 1.0440285 0.022246264 -0.50881094 0.23661873 -0.663927 0.8051345 1.3304447 -0.2792473 -1.6615447 -0.96329886 0.18619688 0.08330916 -0.24179992 -1.3842913 -2.8490307 -1.232911 1.4087087 -2.1073964 0.8093879 1.0010389 1.8159412 1.5570146 -0.45623714 0.79841924 -1.051263 -1.0969009 -2.2161775 -1.2462666 1.0683173 -2.1740851 1.8449159 2.2649434 -0.78370273 -1.8617693 -1.9786553 4.1103206 1.3310705 -0.42991063 1.2083154 -0.5266576 0.2694333 -2.6928704 -1.3938382 0.1507446 -0.92691517 0.9583595 -0.6783021 1.5809703 -0.1445116 0.39617848 2.3211293 -0.65980345 2.6879325 0.77694046 -1.6652588 -2.646612 0.010821392 -0.22898045 -1.6918266 -0.50538117 0.33312517 0.34884164 0.4217643 1.7225217 -0.09950973 -0.15502359 1.2375374 0.723562 1.920551 -0.4262095 1.7017199 -0.974136 0.10979402 0.56132406 0.34692568 0.28977823 0.70855737 2.0617585 -1.3351076 1.9528645 0.14318262 1.7721279 2.1483583 -0.0069556753 0.90051913 2.0492263 0.005222871 1.109852 -0.80410427 2.0973005 -1.0695916 0.45220083 -1.0868953 -0.5434956 0.8242119 0.15710808 -1.6881171 0.3105071 -0.23846379 1.2448854 1.5189587 -0.17072469 -0.24146625 1.0137244 -2.5615509 1.5085927 2.3540347
晚安 3.4903326 -0.084319584 1.4108808 -1.5657382 0.89533335 -0.87319404 -1.0006188 0.695149 4.0970573 0.7748861 0.5207819 -1.6111659 -0.23673572 1.9809594 0.41833428 0.07437612 -2.1517398 -0.7992143 1.6434188 -1.6417994 -1.2528602 -0.87586385 1.4055066 2.4069324 1.0078645 -1.8240602 -4.011778 -0.56357604 -0.626797 0.9275711 -1.7151369 -1.8317935 -0.3007012 2.3986835 0.55784845 2.6600902 0.40693253 0.89829344 -2.5005405 1.3144308 0.39180022 2.2824743 0.5655588 1.1394149 0.24303026 -2.6918263 -0.8314256 -0.43775827 0.78863406 -0.34795678 -0.39624062 1.6909248 -0.85455835 0.5867968 0.4972144 2.9821222 4.070886 1.4788874 -0.48369268 0.06885432 -2.4280355 -0.05019087 1.9115592 -0.029128144 -0.74911433 -0.061380938 3.0194042 2.6400144 -1.0385284 1.0817478 2.5773785 -0.7965246 1.3184305 -0.7523633 -0.629424 0.89462936 1.1203831 1.5772351 1.3827229 0.18843277 -2.4307256 3.419849 1.5672545 -0.75035095 1.4305226 -0.85115576 1.8440464 2.6417878 -0.20797735 0.7045889 0.034042634 0.7783834 -1.0555191 -0.8768972 -3.0133574 -1.0201586 0.03139546 -1.5191649 0.70323795 -1.5850794 1.7743751 -0.831487 0.57099 0.2221454 0.1813068 0.24467404 -0.2921974 1.2329372 1.6803737 -1.9046205 0.30733845 0.584796 1.5870686 0.31783324 2.0514045 3.438034 -0.4737535 0.92332083 6.3685465 1.6126994 -0.18246476 -0.052618936 0.8366595 -1.8110516 -0.92789924 2.8071702 -2.639849 -0.30502883
气球 -0.68985695 -0.2620321 0.57249993 -0.6990526 0.7206009 1.2688632 1.1042343 3.2633266 1.2335153 1.5518134 0.34530312 -0.31871086 -3.6075878 -1.1696799 -2.1142135 -1.0897378 -0.3532536 -3.1310766 -0.47735342 0.99260974 0.26438916 0.29434943 0.7386997 0.018644297 1.2692237 0.22050051 0.19011132 -0.90430766 2.4063041 -0.5666106 -2.4934196 -1.2212604 1.3293198 -1.1956784 -0.8963139 0.73213995 -0.36584184 1.7065737 2.491231 -0.26382115 -0.461011 2.5232615 3.3976839 0.08298461 -0.67278385 -0.058459427 0.73418766 0.5375352 2.1995919 -2.2155316 0.25259486 0.09179052 0.9733059 -0.3269066 1.189849 2.0670938 0.8026518 -4.775212 2.3300412 1.5440837 3.4239976 -3.0697849 3.354563 -0.47569326 -0.3761198 1.1201961 1.1767464 1.3405867 -0.3473325 0.49620974 0.16134197 0.8013404 0.05914448 -2.8223426 1.1395155 2.2776203 -2.621178 1.882271 -2.4278793 -0.20484589 -1.0238317 1.5608612 -2.3921242 -0.52410233 -2.5970774 1.5309633 -0.78289104 1.779652 1.0077728 -0.6161914 4.091431 0.76065207 -1.8811249 -0.0025761486 -1.4518288 -1.2626913 -0.8377355 1.9906449 0.110138744 -0.59293664 -1.2561518 -0.3266692 1.4227674 1.2319556 3.3522103 -0.1461752 0.7394595 0.9815682 0.75272137 1.7936382 0.34618706 1.443735 -1.1857463 2.068453 -1.5460222 -2.0311213 -1.5234839 -0.5586927 3.3779113 -1.3858074 -0.8069549 0.9592276 0.044575993 0.12044162 -1.2631181 1.1890222 0.012126739 -1.5887079
银川 0.4664041 0.5107866 -0.54006815 -0.045169447 1.1995198 0.11559317 -0.7331305 0.8104864 -1.1069111 1.1042069 0.44399014 0.9784867 0.36703485 -0.11283531 -0.104031235 0.7773939 -0.47089863 -0.8755417 0.28409708 -1.1926892 0.43432474 -0.69089025 -0.1771223 0.39790884 0.8959767 0.76270515 -1.3165886 1.6703731 0.16969979 1.5817413 -0.0698834 -0.3921802 -0.668908 0.6190475 -0.6561424 -0.16336517 0.12821391 -1.0574906 -0.29995513 0.7181468 -0.1664223 0.25703245 -0.72503525 0.520365 -0.11666223 0.5587634 0.5297652 0.77557766 0.3521042 -0.5643913 -1.209776 0.026499102 0.10234836 -0.74223506 0.5199392 -0.9712992 -0.3435195 0.14773096 -0.8072272 -0.54842037 -0.15640034 -0.011151763 0.75057626 0.19334653 0.40256822 0.65986377 -0.0052691936 0.4229158 0.039159674 0.7317414 0.62586695 -1.2933247 -0.0048949956 0.4907988 -0.90375286 -0.19068784 -0.13847448 -0.3119427 -0.120170064 0.807821 0.6639779 -0.9727097 -0.53783363 -1.3903575 0.3706869 0.36174256 0.54991484 0.50213474 0.030187828 0.48167306 -0.28110844 -0.7681174 0.3780355 0.3621443 0.13426392 -0.17052561 -0.8813506 -0.3881806 -0.67729735 2.3638017 0.018601416 -0.58450496 -0.4197221 -0.9219703 0.3892453 -1.2568557 0.2941965 1.9147474 -0.3264787 -0.78855497 0.13599257 0.2785497 0.32262185 -0.04841059 0.2233274 1.3167267 -0.08557566 0.00836689 1.0711528 -0.36293983 -1.1652898 1.6116903 -0.38072246 0.14101951 -1.1157076 -0.15173873 -1.2075791 0.60830945
松开 1.2824202 2.1351385 1.140856 -3.368422 0.47029114 -0.47603333 3.2004845 -0.09452408 1.7634388 1.9307098 -2.816371 -0.7283944 -2.4941115 0.45611534 0.25149286 2.724805 1.4063252 -2.1132455 -1.6518208 3.7485626 1.8939605 0.82999986 -1.3689674 2.1887815 0.3374118 -0.31175983 2.750152 -4.371469 -1.454213 2.7834644 1.801482 0.27697414 0.49490705 -3.5842972 0.7478504 1.5602219 -3.282931 -1.442221 -2.1604838 1.4279461 1.0499444 -1.5327805 -0.2722546 0.54946184 -1.3508416 1.4099678 1.8223815 -0.025844568 0.7692238 1.3858917 0.99064356 -4.2570863 -0.514372 -3.4838762 -0.77806836 2.600628 -4.367859 0.8031681 -0.98431134 2.6145663 -0.9701066 1.472538 2.7210853 0.14910851 1.3271036 0.22513078 -2.6669075 0.2811099 -0.98438597 -0.79832464 -2.1667476 -6.7527337 1.6919227 2.8453507 -0.9956699 -0.96620655 -0.6030422 2.5150359 1.5269619 -1.8462468 -0.30717036 -1.9034706 1.9418411 0.3896753 0.71974903 -2.9088688 -0.99300873 -0.44238734 0.16837397 -2.3947563 0.5030661 3.78531 0.46739036 -0.8213889 2.6120505 -2.4570427 1.4552922 -0.9869778 0.2591932 -0.8757084 -0.10006668 1.8897685 -0.046650074 3.1113946 -1.3978457 0.63351 -3.8449376 -0.6330807 -3.717562 1.8988898 0.8029311 -0.9426176 2.9018722 3.7425108 0.23789479 -0.9247809 0.17952858 2.7878275 0.9971994 2.9973066 0.9173322 -0.76555043 3.0126061 -1.7127247 -4.030781 -0.3773654 0.42311102 0.6919322
困 -0.9548909 0.25871402 -2.194373 -0.98449355 0.682706 0.9964628 1.0500262 1.4956756 0.48804477 0.031701956 1.16392 -2.8429034 0.41957626 1.504787 -0.6594697 0.7749728 -1.0694734 -0.2777952 2.0172377 0.4353348 -2.0333445 0.8819078 0.56626093 -1.5155338 1.5592378 -2.127222 0.4510399 1.2934241 -1.1348583 -2.9262857 -0.6397904 0.0052148835 -1.3396482 0.08797413 -0.6258086 -0.1714503 -2.0964727 -0.9451958 1.9866333 0.90179443 -1.3020058 1.1519139 0.5196014 -2.252707 2.770932 -1.3136277 -2.359589 0.79495496 -1.2793312 1.3397058 -2.0736887 -2.19428 -4.11021 -1.1182493 -0.732093 -0.43606433 0.9607458 -3.4713182 -1.5588304 0.7383452 0.1973296 1.3826602 -0.25526658 -0.07364671 1.8595488 -1.9848443 -0.27178097 1.5893782 1.8674173 1.6036912 -3.6150012 -0.5292685 -1.3549865 0.2727342 -1.5966792 1.4120831 4.418807 2.3634443 -0.8439791 -1.1890407 0.41196704 -2.7805233 -1.5997059 0.055745788 3.4437604 2.5370073 0.12544867 0.63630956 -0.8707704 -0.57916194 -0.37873438 -1.275331 0.3799022 -1.1375299 0.42060092 -0.18189776 0.18528159 1.003933 -1.2404631 -0.16605748 1.2642748 3.9575624 -0.108665116 0.8633811 0.7972313 -0.6361011 0.03465989 1.2324286 -1.9188284 1.1790476 2.4270594 1.9652591 -0.79504937 1.9312646 -0.40659648 1.2621891 0.71777683 1.4688848 0.07168076 0.41012824 -1.0287912 0.7994051 1.8069708 -0.9798593 0.2093961 0.77981234 -4.72012 -1.5781397
着 0.99835354 1.6902357 -2.491757 4.8711944 -0.2038109 -1.3215088 2.2869186 1.3432413 0.013868783 0.29949048 -0.21357265 -0.74601996 1.1457249 4.6251383 0.3216432 1.7884732 -1.0684372 -0.48872873 -5.1658316 0.29102746 -0.18077874 -2.9463124 -1.0218985 2.158475 0.4769816 -2.5218906 -2.2477727 -0.043765623 -0.18975589 -0.2334308 1.7211823 -1.7891634 -1.2599987 1.6704037 -0.9982044 0.14833535 -0.6686366 -1.2033565 -0.109008335 1.2278774 2.9666872 -1.0962594 -2.7026365 0.70201916 -1.9464128 -0.88230973 2.0835357 -4.1151648 -0.004203665 0.63597167 1.2413899 -1.7380391 2.3160584 -0.0839983 1.1087222 1.5922189 0.22619373 0.99619013 -0.14541301 2.5988417 4.454842 0.0413421 -0.20531572 0.42933095 -2.2236166 3.2543135 -5.6866546 3.3442636 -1.7584037 0.08270361 0.5255757 -2.0844796 1.1957911 1.4944549 -1.9968187 0.21453036 -2.8540015 -0.2568732 -4.8926034 2.2794406 1.3653976 2.6418123 -0.037761126 -2.7547672 -0.75960237 -0.87075996 -0.9763247 -0.53620464 -4.5626345 -3.2371824 3.0250032 -0.019093156 -1.284646 0.0013524267 -0.19283517 2.4171665 3.0373635 -1.0406466 -0.7074937 0.23409732 1.536804 -1.7701793 0.8138327 -1.1863754 -3.335622 0.5483801 -1.5219303 -1.2324241 2.082028 -1.9883808 0.13901213 5.639636 2.2095478 3.36907 1.5856018 -1.1407104 0.01708895 1.4336197 -3.9481091 -1.5208768 -2.1899283 1.4078603 4.225415 3.5299053 -1.1715738 -0.5106235 -0.63750386 2.9516888
应 2.7367368 1.335133 -0.67356116 -0.3175863 2.3458204 -0.77344364 -0.0549743 0.73356605 3.2746537 -0.5940095 0.1640718 1.4048221 2.574069 -2.6070416 1.4510221 -2.6254263 1.2320341 1.3706818 -0.74683005 -2.151976 1.9225461 0.76961017 3.4078274 1.2876549 -3.7423844 -0.65300435 -3.3482654 -0.94138616 -0.46809778 1.1368196 1.9381639 1.8900713 0.2769359 -1.9525864 1.5960195 0.8064968 -1.1063464 3.9077904 -1.4440031 -1.3197505 -1.2207751 0.13151294 1.5386374 -3.8383825 0.7540858 0.16254054 -2.4613595 -0.47813866 1.4379448 -0.49484214 -0.4667414 -1.0743804 1.4613574 1.4738749 0.16283645 -0.0063193887 -3.4770885 1.415228 -0.51006395 2.5030482 -2.3029106 2.7796423 2.335058 -2.3734589 1.519066 -2.660125 1.2988355 0.27044696 1.8274958 0.43644768 -1.9044007 -1.8279437 1.6037389 -1.4265258 -0.32645985 -0.53651804 5.2112627 3.7455816 0.4852189 0.34259018 -3.7090008 0.45586073 0.2875659 -0.62377715 -1.5793667 -1.4427339 -2.924883 0.37479907 0.32586455 0.607841 -0.09747099 3.3004496 -2.0286436 -2.270614 0.28040794 0.28421474 -0.18743536 -0.5599217 -0.1254648 -1.8553631 -0.4393044 -3.4603963 0.52664155 -0.03122514 1.2351905 1.8809447 0.0026870607 -0.8736718 0.16329187 0.5175669 -3.6013434 -1.2031674 0.3757751 -0.12831952 -2.4788544 2.7072725 0.2313931 -2.6050513 6.314647 0.54040277 -0.54223245 0.15356022 1.0151296 -0.014013911 -2.3040602 1.374726 0.26284346 -4.5176444
上海 0.49274832 0.31849936 -1.0668274 0.06970575 1.0060568 -0.40905136 -1.7502327 0.804516 0.09166945 0.93318677 -0.8693656 1.5313263 1.2125888 2.2592552 0.16946708 1.5996435 -1.5088731 -0.60573924 0.82623094 -0.4664211 0.82726866 0.017448157 -0.8592744 0.5048102 0.20719251 1.9739386 -1.1116674 2.1578152 1.6250855 1.7721188 0.21615724 0.6549766 -0.9319314 1.2604197 0.16232926 -0.44410306 1.0229515 0.6766803 -0.6275237 0.3764428 0.31208688 -0.89990824 0.94001585 0.08752328 1.1903706 0.22936276 0.14345238 3.7550404 0.56132954 -2.0395937 0.8906707 0.5842838 -0.79969406 -1.0345446 1.7616811 -0.19295327 0.43414587 0.3911636 -0.5747299 -1.5945855 -0.89221406 0.072769575 1.0055133 0.79611564 0.78837025 -1.0570201 -0.2058329 -0.81341934 -0.48598582 1.0835038 -0.90030324 -1.1899855 0.76635635 0.9711358 -0.076883785 -0.15176657 -0.03066634 0.050495893 -0.16780274 1.887508 0.949869 -1.5519294 -0.2501212 -1.5165416 1.1560731 0.042278107 1.511355 -0.68331134 1.059206 0.20374756 -1.8140197 -1.1170864 -0.8946333 -1.4855349 -0.5423834 -0.17970797 -0.39205876 -0.5978535 0.27801508 1.2560986 0.80105835 -1.9065732 0.5334992 -1.4926044 0.4878315 -1.0800071 1.0305196 2.9073741 -0.53009003 0.1411967 -0.10936614 2.162768 1.7686982 -0.43910602 1.3727047 -0.5065696 0.54573464 -0.5768286 1.6366694 -0.21306548 -1.1598852 0.4049834 -1.0123023 -0.10373824 -0.3582233 -0.16159914 0.141048 0.9178845
灯光 1.7633103 0.64093494 -4.00453 2.2082694 0.520444 0.74990255 1.3062567 5.2936 0.4443158 -0.6503928 2.7582283 -1.8600557 1.2503278 1.4567734 0.4728464 -0.038927034 -4.110204 -0.33297467 2.0384676 0.40217108 -1.6110119 -1.2342546 -0.34676084 -0.77225035 1.4097681 -1.2245505 -0.42777005 3.6351786 -0.3744322 -1.3017812 -0.70203245 -4.238986 2.4667082 -2.3090625 1.1309531 -4.9836 -0.2428762 -1.7949698 0.815556 -0.8478262 -5.273929 -3.4983466 -0.3471486 -1.9579514 0.42301485 -0.0064086127 1.911802 -0.7261692 1.2689128 1.4598217 -0.81392694 -0.51929575 -1.2659612 0.54417753 -0.6303966 1.0224453 -0.13894711 -2.6366496 0.63326764 -2.1328077 -2.1540654 -0.12719238 -0.23501045 3.4457386 -0.69859594 1.5285127 1.4304149 0.6097498 -0.049982633 -1.3024783 1.2299372 -0.089459464 0.23650263 -6.419357 -1.5129774 0.024354866 -0.73371965 -0.29578024 -0.7028068 -0.64352804 -0.96131396 0.65823984 0.6715768 3.9730847 -4.1285467 0.66368496 0.14553352 6.0891995 0.971872 0.80374753 3.8192937 -3.6245484 0.38910437 0.8193811 -2.003118 2.093675 -0.9240856 0.046489134 -3.2358954 0.013606554 0.24918675 -2.7081542 -3.8728373 -0.8130354 0.061834987 1.3521459 -1.6411371 3.085933 -1.6503601 -0.19512819 -1.2863 -2.8705409 -1.3843944 2.2454832 1.7794209 -0.2795376 -1.3327391 4.3518105 1.3647814 -1.305431 1.9705067 -0.3920401 -3.03388 -0.7117487 -1.1395081 5.1001534 0.57464653 -3.8195424
开单 1.4310147 -0.67913073 1.3577306 -1.1780826 -0.2506176 -0.86847055 -1.1247932 0.7888444 0.903003 -0.17056791 -0.18815392 -2.117159 -0.5053222 0.28471327 1.3673167 -0.45629066 1.1574981 0.54918593 0.68184835 0.90470666 -0.24585232 0.6113579 0.8700042 0.61237 0.53057116 0.8822738 -0.8980841 -0.65266925 0.8739291 0.28850198 0.05630193 0.70269614 -0.30719683 -0.07223192 0.49783108 -0.6286746 0.20313345 -0.19634156 -1.1050687 0.98020244 -1.3370749 -0.011522461 0.8034647 -0.9193146 0.9545512 0.269399 0.5876561 0.4008653 -0.6520805 0.83264166 0.8009211 0.7584639 -1.0181255 -1.4131286 0.4772781 1.416155 0.87262243 0.9182235 -0.3901938 1.2795335 -1.267986 0.002820753 -0.15057445 -0.20534194 0.21158507 0.51167893 -0.38487145 -0.12983699 -1.5303195 1.3641764 0.03036455 -0.72664064 -0.53591216 0.2709961 0.16198839 -1.1229744 0.53903437 -0.6431761 -0.72957015 0.16277277 -1.7216287 1.3652225 -0.06025968 0.58379036 -0.11899249 0.878728 1.951201 -0.121328905 -0.5764244 1.0249646 -0.20354168 0.791351 0.25269482 -1.1351548 0.07658187 -1.0824423 -0.30329376 -1.6609671 -0.66425633 0.39981318 0.34469324 -0.5144925 -0.3392925 1.0373394 -0.645708 -0.3326138 1.4952656 -0.7996413 -0.5123336 1.3147318 0.3363793 0.11622615 1.6000545 0.040094182 0.6188181 1.2652045 -0.82106054 -0.24458677 -0.8968307 -1.3740902 0.32224947 1.930131 -0.010809765 -1.0099943 -0.9181554 -0.111948125 0.10176137 0.39503285
最暗 0.13357471 0.8841721 0.77261525 1.1710947 0.39351147 0.8598398 -0.35746786 1.2215607 1.2006124 0.05457828 1.1008106 1.1310986 -0.65721583 -0.9351036 -1.6696377 -0.36527932 -1.3291564 0.09017846 -0.6107739 -0.57296693 -0.9919565 -2.0796616 -1.0858494 2.704699 1.6233323 1.6616572 0.5895426 1.4302019 0.22778259 -1.5283749 -0.671718 -0.29406857 -0.67456746 -0.5013069 0.99914646 -2.8969479 -0.75403666 -0.96491396 0.14699192 0.7935869 -0.5652009 -0.5892252 -0.41533372 -0.07221383 0.49268508 -0.84689564 -0.14214194 0.62680113 -0.77217233 -0.5402402 0.41438553 -1.0689007 -2.1873894 -0.417526 1.7895578 -0.4228567 -0.95631313 -1.264659 -0.21300042 0.12929377 -1.1152555 1.2955523 1.3381693 1.3875514 1.7020452 -0.7690021 -0.08561096 -0.4993366 0.21547213 -1.6599748 1.404152 1.2986832 1.2557732 1.0753984 -1.3797319 1.3018184 -0.48885608 -1.6617707 1.2126477 0.13616337 -1.0858529 -0.28567597 0.18686661 -0.026851434 0.11177351 0.662517 0.18281311 -0.7927125 -0.7703114 -0.8400216 2.4660127 -0.8753738 0.3709744 -1.0656074 0.07631571 -1.3785385 1.0786048 -0.5645093 -0.42722446 0.07422376 -0.90328056 0.5329921 0.93566495 -0.50481623 -0.7952078 1.059781 -0.76090544 -0.8583043 -2.012234 -0.86769265 0.7922198 1.7601783 -0.664552 0.44980708 1.163959 -0.8232845 1.0279762 -0.46507937 -0.004558266 0.8374583 0.87912905 1.486518 -2.2168362 -0.80218214 -1.8299873 0.07585633 -1.1450386 -0.62768906
替 -1.2493876 0.5991888 0.97463906 0.67406493 -0.34144232 -2.9396732 -2.2076273 0.3032185 -1.0551049 -0.5678104 -1.7134907 0.6101978 1.8861568 -1.0998648 0.50737303 -0.09918525 -0.16741979 -1.3543088 -1.2193071 2.2122383 -2.2901485 -0.34241498 1.2216259 -0.08782896 -1.6241024 -1.4183577 -0.23132975 1.1842858 1.1404042 -0.21357328 0.36215115 2.370976 0.28397715 -1.1383756 -0.56733406 -2.4179058 -2.4710696 0.20805292 -2.6980915 1.6680949 0.7183468 -0.4932596 -0.008254219 -0.07843394 -0.23242281 0.16038059 -0.062269345 0.60672426 0.26917556 -0.23056526 0.33521223 -1.4589423 2.7640405 -1.3248194 -0.836025 1.407735 0.68143135 -0.6448937 -1.7333887 1.8852873 0.7959703 -2.1028924 -2.556503 -0.5046712 1.8092028 -3.4043958 -3.443754 0.057690445 -1.8160836 -0.85053223 2.1259243 1.0774453 0.63738835 1.5118 -0.16454504 1.3490769 -1.1336588 1.7770774 1.2097317 -0.6388704 0.1666625 1.862563 4.893272 -0.4800396 0.9383005 1.4767877 2.1643913 -0.369718 0.9500218 1.101285 -2.9208848 0.7175039 0.14905532 -0.70044607 -0.68500936 -1.560595 -1.6874479 -0.5374338 1.4916637 -2.4787245 -0.40803662 0.92543185 0.24395667 2.7376697 3.1092675 -0.7469984 1.1066802 -0.20332338 -1.0872843 0.11345292 2.394624 -1.0343195 -0.1299 -1.1205807 1.0273275 1.1308278 1.4052687 -0.784185 -1.1675518 -3.0759156 1.1043082 0.4889273 0.90390205 -2.607575 1.027166 -2.6429596 -1.0697953 -2.1655962
啥子 1.7221202 -2.6493993 -0.39849955 -0.43495464 -2.1378267 -0.41889405 -2.5052788 0.14059925 -2.2960284 -0.6642523 -1.8195354 -2.137589 -2.0477126 -0.24691819 -0.4279977 1.0645268 0.82222325 0.320905 -0.8131251 1.8490062 -1.173775 -0.6265035 -0.4886717 1.7656002 -1.4488579 2.477469 -1.0398201 -1.1666946 1.8688409 -2.0815718 1.5520413 -1.3394767 -1.9316076 -0.59792584 0.78771037 1.8370706 -0.70932245 -0.6939452 0.79860985 -2.8632843 1.4776013 0.65195185 0.9778087 0.03538112 1.9348991 0.83752805 -2.353095 0.20487848 -0.441254 0.97913134 1.1492145 -0.37088183 1.0367949 -0.6846799 -1.8614112 -1.4833438 1.1101711 0.062748946 1.782939 -0.30992407 -0.016339654 1.1902705 0.009825482 -0.20782822 -0.39943615 0.41985163 -0.2826233 -0.4772968 0.8083317 -1.8726231 0.19545169 1.8004391 1.5273073 1.4122752 -0.6987032 1.2747604 -1.4434367 -0.36228427 -1.1272955 0.8361498 0.71891195 0.16176118 1.6143107 1.1114551 2.5990436 1.0397698 0.9334456 1.3547739 0.12137959 0.7456561 -1.4450883 -1.572382 0.58040595 -0.500057 -2.3971043 -1.3451642 -0.111143954 0.94609374 1.0119321 0.34085673 0.36082953 1.1220171 1.7725527 0.057157338 -0.13684396 0.24907088 2.7728615 1.20128 -0.21100758 -1.8345287 -0.362897 0.64295083 -0.23048192 1.5182784 -1.993651 -0.993192 1.1014183 0.543918 -0.57772464 -1.7638763 0.76984626 0.07200077 -1.1502337 0.41838127 1.9388865 -2.1700535 0.72052616 1.857178
提醒 -0.2179131 0.46633723 1.9152656 -0.7878439 1.654324 -0.15625937 -0.567528 -0.60664076 0.7635386 -1.6015682 -0.4283968 -2.4023573 -0.86394423 -2.7453682 1.9117616 -1.6087213 -0.28055835 1.9501452 1.9615389 1.032956 0.24740301 -1.0608965 1.5815978 1.8140788 -2.0435138 -2.0282373 -2.9640014 0.30868536 -3.8202913 0.8252899 -0.88316405 0.9643166 1.4273865 -1.0452845 1.5212084 -0.93702775 0.26080546 1.7731857 -0.96835244 -0.54782563 -0.4514299 -1.4328518 1.199781 0.58658534 0.5682458 1.7298942 -2.622656 1.0183334 -1.3240772 1.8902075 0.47013417 -2.1943789 1.9451596 -0.12750529 -0.025223814 0.56067854 -0.41111302 -0.5267014 -1.8705297 0.5510874 -2.4378242 0.46867242 0.23779932 -0.36612123 -0.48353744 -1.2724284 -1.4263029 -0.7391854 1.5227702 1.7573338 0.81724465 2.118536 2.8341646 0.2236831 -0.31641445 -1.0688181 1.3101294 1.2271427 1.9767816 -1.8713919 -2.1790257 -1.4023268 1.5937183 -1.6471957 1.9239393 2.3226633 2.3443503 2.7060304 0.19504052 0.8952033 -3.885837 2.074471 -1.640089 -2.1964095 0.51234615 -0.887128 -0.7912184 -0.8994717 0.9539433 -3.8416123 -2.2899477 -0.9313419 0.11483802 1.3687187 1.0501037 0.11130777 0.17402814 -1.4455885 -0.89030325 -0.848204 -0.63065606 -1.0242513 0.78874934 -1.7609073 -0.07069948 2.914213 -0.5550286 -2.7443526 3.1139443 0.5809748 1.7070634 -2.4768882 -2.137022 -1.3486456 -0.017901374 -0.6344799 -0.86189127 -2.7968235
换个 4.4566708 -1.9788934 1.7075714 -0.088022456 -1.0929393 -1.01149 -0.3909741 -0.23306839 3.1536026 -0.24597672 -0.50770044 2.6541839 0.11415096 2.4916382 1.3134258 0.7046555 -0.9593134 1.7341261 0.6069053 1.469064 0.5400687 -3.3387969 0.30562437 2.1725225 0.92476994 2.4712777 1.0962999 -2.4634826 -3.350499 -0.59479874 -1.6626009 -1.373564 0.9780448 -1.0885166 -2.8269608 -1.1908585 -5.1794543 -0.38872266 0.64583147 2.5236437 3.3514464 -0.057126 3.3555317 -1.6959722 1.8318896 3.5974326 -1.4201802 -2.099693 -1.3984946 3.7760499 2.782097 0.9051232 -1.3647776 0.7780834 -4.3760786 -2.5922906 -2.407735 -2.3285153 -1.0306599 1.4198207 -2.2260325 0.79632527 -0.8806099 1.0220231 1.5519553 -0.6865044 -1.1514186 1.1396579 3.0997145 -1.9615622 0.32938415 0.73250264 2.8630388 3.1154935 -0.13210993 -0.022196356 -1.7388088 1.733579 0.28882548 0.68042815 0.30256292 2.2860484 -0.08683093 -1.7583135 1.6487687 -0.6027011 2.834944 0.64481217 -0.07841428 -2.4026713 -0.87642545 -0.5928687 0.6824281 -4.527596 -3.2902558 -0.4915935 1.6486372 -0.39192975 0.3983796 -0.9862108 2.0663228 -0.34366882 -0.04303214 1.4825457 0.99124855 -0.1934692 1.3218791 -2.3345819 -0.3204168 -0.17591584 -0.7775716 1.2867825 1.469713 -2.31635 -1.4772924 0.17526579 2.1776266 -0.1477338 -0.17817326 0.10880192 1.950732 2.7736323 -0.28986165 2.5560684 2.06677 -0.34887427 -2.3364747 -0.6397106
成功 -2.2917392 4.451619 -0.7722322 -1.4297011 0.09193193 1.2778821 -2.6406772 -3.2456665 -0.723736 1.2521539 -0.8818354 0.04562074 -0.3797648 -1.2915654 -0.11917593 -1.2718515 0.9203649 0.20022112 2.7191265 1.2487113 -0.43676805 -0.37408534 -0.15905878 0.68765634 -1.4912714 -1.535701 1.6774112 2.408886 0.81164736 0.7611793 0.2520784 1.2184862 0.77394664 -0.15104038 0.08893975 1.1904628 1.1795104 -2.2313142 -1.5102836 2.808132 -0.6980787 1.0854425 0.45309058 -0.12435469 -0.7196125 -1.1742913 0.69182366 1.5634995 -1.4332465 1.3814409 1.6717057 -1.2146142 -0.61038125 1.5321109 0.3061027 1.027913 -0.23913777 0.2617498 0.02226182 -0.16108872 -0.3940726 -1.2548292 -2.1269846 -0.63979745 -0.3634511 -1.1489968 1.3411858 -0.96821254 0.5283237 1.1415725 0.5744741 -0.48500907 -1.4168078 1.1921206 2.3731267 -1.0608147 -2.1215615 2.038898 -1.1042713 -0.6896737 1.3921016 -1.2944194 -1.0352212 1.2597346 2.2262802 -1.1703498 1.4759295 -2.3163908 2.009572 2.0964234 1.870382 2.2877111 -0.37460473 -1.168356 0.32877278 -0.17680694 -2.4762628 1.0215181 0.85441566 -0.4037666 1.3913321 -0.521837 -0.15267892 1.4958763 -1.1808826 -0.43682376 -2.2582204 -3.715336 -0.51720554 -0.9750779 1.0595392 0.46413207 0.95578057 0.55009097 -0.07767598 -0.016995283 1.830046 -0.3227303 -0.2235297 0.30755013 -0.17145988 -0.06733238 0.63212067 0.17738378 -0.019884795 -0.18546554 -0.13635078 -0.8987305
蕉叶 -0.9529334 0.76579773 -0.18068418 1.4016196 0.67218405 0.37112495 0.5718001 1.7379882 0.06597017 0.28124312 1.1478704 -0.64678913 0.03559998 -0.87752074 -0.11300773 0.9558968 0.90096325 -1.0093323 0.9004406 0.75694746 -0.5374623 -0.6958443 -0.31607324 -0.18122292 -0.60734624 0.89376557 -0.7914574 0.020087447 0.9591694 0.84626937 0.6702655 -0.66364646 -0.83256143 -0.9163862 1.1037545 -0.24265267 -0.06452196 -0.04645607 0.22241418 -0.87938863 -0.9804358 -1.3763783 -0.38282153 -0.08209842 -0.047306158 -0.20025796 2.0991023 -1.0525103 0.8878638 -0.22158554 -0.43102986 0.08598489 -0.29710445 0.294445 0.95856583 0.47795042 0.54623085 -0.47116822 -1.1405563 0.32781205 0.10062947 -0.0048757833 0.30538848 0.99066347 -0.4656051 0.8427529 -0.35018054 -0.086083606 0.057764605 -0.15649302 -0.75163597 0.24792823 0.07790992 -1.2402222 1.004047 0.6156248 -0.017454078 -0.83608824 -0.37676013 0.19695751 -1.1241858 0.7779988 0.09575884 0.058687698 -0.5454554 0.2440064 -0.37740234 0.3019451 1.691665 -0.33437663 0.7115328 0.31839758 0.35650334 -0.55720097 -1.453351 0.40968102 -0.28682616 0.008555183 0.7948449 0.35846853 -0.98000646 0.10731529 0.8276311 -0.82593876 -0.15613343 -0.46270457 -0.028041974 0.41302308 0.62215227 -0.18783106 0.64023066 -0.3611346 -0.597561 1.6717379 0.91814965 0.44600165 0.16968702 0.718549 -0.5834971 0.22017679 -0.7609524 0.062193822 -0.08215422 -0.1353017 0.10765367 -0.34783903 0.20980595 -1.075447
脚手架 0.15288001 -0.29555145 -0.67615914 -0.84641975 0.38061422 0.59594333 1.4441344 1.0173355 0.7351562 0.3186841 2.7469134 -0.04788614 -0.278147 0.9944451 -1.3981352 0.37957639 -1.1281078 -1.5079578 -0.039110787 0.83705086 -2.6088321 -0.16903247 0.6770675 -1.3831688 -0.5555433 0.026771247 1.7027476 0.9955724 0.8244605 -0.6022571 -0.29381573 -1.534877 0.3122976 0.14149415 -0.89063317 0.2757395 0.33012173 -0.40733847 0.9345345 -2.1977053 -2.2046883 -0.36284786 -0.115685806 -0.5102267 -0.4811555 0.3121494 0.889732 1.0873914 1.1404701 0.31922883 0.08330174 0.2879527 2.456512 1.3733966 2.5492089 0.437055 -1.4095322 1.0420842 0.7882576 -0.0865106 3.199936 -0.28025895 0.9113925 -0.54651564 -1.9872781 0.79701567 -1.4921632 0.883311 -0.4090293 0.73591447 -2.210725 0.08803192 -0.44576958 -0.83930683 0.14996709 1.4092218 -2.0863729 -0.60666454 -1.2699786 -0.0028112936 -0.7174516 0.16907805 0.49700654 0.15334392 -0.20808081 -0.15516593 -0.12959376 -0.27676526 0.31821367 -1.3847309 1.7555118 -0.5573423 -1.5933797 -1.4049163 -0.6838893 -0.005039064 0.32638294 -0.016738448 -0.5534777 0.0910231 -1.1544225 -2.5626473 0.4447585 0.70615363 1.4539589 -0.0046993764 -1.5237488 0.81486017 -0.06297059 1.5407393 -0.19536304 -0.2360712 0.6065436 2.0045922 0.069906816 -1.677247 -0.18686207 0.93537027 -0.65032715 -2.0458355 -1.3209574 2.1831615 -0.19848968 1.0530577 -0.5172927 0.044727743 -0.34775993 0.47446302
又 -1.2142901 -0.59401244 0.79439515 1.7901295 1.0455261 -2.931508 2.7416766 0.40679052 2.1678128 2.0251927 0.44844434 1.9854816 -0.46267346 0.88070774 0.3186727 1.2279035 -1.987495 -1.2244128 1.9474716 -1.4377408 -0.15648307 0.45922768 -0.9654 0.061742328 2.6652231 0.93832445 -0.25615352 -0.7364571 -0.5900645 -1.0572023 1.1567096 -0.6177051 0.7537572 3.051687 -0.9301295 2.1978188 -1.6236477 2.387286 2.871668 -1.3473758 1.0517002 -3.377692 -1.6867828 1.3893652 -0.23268665 1.1685841 0.86088526 0.6132571 0.5205144 -0.40586507 0.06642091 0.5651809 0.39774585 -0.7975056 1.4195615 -0.2686179 -0.3115781 -0.18673101 -0.4195221 0.08671234 0.06505569 1.2573961 -0.24846911 1.6947913 -0.438482 -0.9757004 -0.69725996 0.41019785 0.379631 0.0985967 -0.88048285 -0.7015761 -0.9522601 0.7726027 0.8310909 2.6090882 -0.8907229 -1.788052 0.22026713 0.013294225 -0.83086616 0.8900742 0.14997889 0.5783823 -0.1457142 -3.0314333 1.7536566 -0.5100466 -0.066924565 -1.9803159 1.2060463 0.6547551 -0.028654283 1.1548448 -1.9178017 2.885612 -1.4475131 -0.11878663 -1.5821965 -0.7430121 2.236697 -0.27198026 0.12200022 0.6196397 -0.7281162 1.0915339 1.7578841 0.52983844 0.3151556 -0.5839086 -0.3023437 1.8546716 0.23306645 -1.8751407 -1.5645045 1.5580739 -0.46622226 -0.029746989 -0.7792613 -0.4448711 -0.47629744 2.7831962 0.20458774 1.7297809 0.41595444 -0.2931299 -0.13079633 1.1640363
模式 0.67356986 2.5842273 0.99924785 2.6378763 0.44452038 1.4053994 -2.8822587 0.4981828 -1.4858205 0.22999412 -0.47527346 0.719422 -0.9230847 0.39689907 0.32141003 -1.5293906 -1.1537445 -0.68954784 -0.9601142 1.2790223 -1.1611012 0.5350514 1.0307982 -0.9470874 0.252837 -2.1240742 0.6957161 -1.9410609 -0.91006994 -1.2872602 -0.97072685 1.0258168 -1.8796391 -0.8684678 2.113836 -1.6709481 1.8417971 -1.1521163 -3.4227 0.4669769 -2.33579 1.1737883 -0.24179186 0.44946328 -0.5004938 -0.3024146 2.5023615 -1.0041852 -1.283289 -0.15554853 0.15185423 1.8538862 -2.196627 0.14236814 1.3002208 -0.11006555 0.99369 0.4956598 1.7008806 2.6555457 0.33187538 -2.3608143 -0.59989166 -0.3249737 -0.61404425 -1.4215301 1.8808681 -0.9575585 -0.89911956 -0.50613654 -0.109384336 -1.6548626 -1.9810872 -0.21535178 4.6666694 0.6542 -1.6947131 -1.5881382 1.3896784 1.2827818 0.8469962 0.07968017 -4.3637376 3.0157986 0.031434882 -0.5871664 -1.6758107 -0.32139185 0.37680107 -1.586605 -0.3814668 0.40756834 -2.4342706 1.8510371 -2.8950968 1.6357331 0.4678693 0.14522469 -1.1809146 -0.6268156 1.649272 -3.3946893 0.016513787 -2.3916068 2.272485 0.41676426 -0.82463765 0.015229063 -0.8886275 -1.3946251 -0.5203373 -0.83438903 -1.3431654 -1.6185414 -0.28774104 0.61059785 -0.7969074 -1.8545429 0.29002032 -1.78457 -1.341925 0.09681064 0.9710478 -0.28844866 0.13827595 0.22271204 1.1991428 1.5070094
机调 -0.2469758 -0.1708231 1.2456651 1.2105243 0.584749 -0.7892654 0.6152045 1.0974606 1.5598834 0.4223136 0.2223238 -0.36047262 0.14959498 -1.2861711 0.6389334 0.83378816 -0.14092642 1.061313 -0.4238795 -0.016561938 -1.1426396 1.6181935 0.5947706 2.2232716 1.6500553 1.7061039 0.5938738 -2.95105 0.30548173 -0.9151821 -0.26885915 -0.74212974 0.46192834 0.7757227 0.79431677 -1.23198 -1.7467059 -1.9685384 -0.043560043 -0.6435505 -0.2667329 -0.14236213 0.8472364 -0.7829275 -0.33860815 0.29313418 0.21158712 0.0364809 0.3281487 1.6941283 -1.341449 1.606206 -1.6427141 -2.257539 0.88174534 0.15215717 -1.6660707 -0.39437327 0.91748136 -0.86482483 -0.0012101026 1.2308356 0.31556663 1.2899044 -1.0102171 -0.91369545 0.24328017 -0.5010792 -1.8241144 1.240825 0.20922169 -0.6496569 1.4047213 0.6150847 0.5279317 -0.79200345 0.0049413904 -1.2992576 1.0924084 1.1885062 -0.9572117 -0.43304422 -0.31765988 0.9776648 0.9592758 -1.3146819 -1.876919 -0.35010114 0.054788917 -0.30897737 -0.0038217392 1.6335329 -0.9980268 1.4915092 1.1538742 -0.34225884 -0.59277964 0.61347777 0.20403929 -1.396744 -0.08574148 0.5208679 -0.08873844 -1.6712701 -1.333831 0.0930073 -0.40231168 0.26509348 0.3855937 1.1025348 0.19927876 1.1493113 -0.48045707 0.35020882 -0.27310556 1.3168962 0.0067689014 -1.3589338 -0.5376326 0.082163684 0.79640543 1.8598608 0.05222562 0.8744192 -1.5125135 -1.4570324 0.33374387 -0.039863277
八年 -1.4350588 0.73585546 1.7954146 -0.53847075 -2.9060025 -0.79322344 -0.5885336 -3.9815655 -2.397619 -1.9729047 -1.2581265 0.20629954 -1.4780155 1.5961558 -0.45209584 0.7484061 2.2122996 -1.9811187 0.80785465 -3.7919703 1.0865755 -1.0130022 0.047114417 0.057650704 -0.27530313 -2.4252248 2.7770052 -0.36022174 3.7448 0.6558587 -1.2376065 -1.3675938 1.2372203 -2.6554427 -0.7391379 0.61450523 0.6662739 0.82212806 -1.1249264 -0.811553 -0.57395834 -4.3477736 -0.62134826 -1.2794615 0.25103503 -0.18124449 -0.83238775 2.7744758 -1.5512965 1.0480812 1.7116698 -0.09225418 -3.9961326 -0.9926779 4.1379175 -1.5993729 0.6207649 4.621122 -0.9324652 -2.1144342 -0.8029644 -0.8242245 2.7586167 0.46931222 -1.659398 -2.2718203 -2.3231502 1.2814088 0.5216229 0.7833875 -0.24890171 0.7849061 -2.0704467 2.297186 -0.67191064 1.6834663 -1.8276881 -1.3837106 -0.081881836 3.190048 1.4501711 -1.3950086 -1.2787478 -0.06219978 3.5534353 -0.57348114 -1.2408997 -0.19432262 -0.46677467 2.0935168 -0.8780465 -0.5798791 -0.90936023 2.235129 -0.52295035 1.7593387 -1.1257102 0.79709136 3.000191 0.3319707 -1.663442 -1.9957093 0.09776761 -0.3149168 1.1102175 1.7528443 1.2700871 -2.0557299 -2.3378344 0.17154804 1.884196 -1.110518 -0.693518 -0.6837733 2.6880054 0.03835796 -1.1208853 -1.4766896 3.0568814 2.4059136 -2.567468 -1.7264824 0.56283695 -0.19035356 -1.1766212 2.6744735 -1.579247 2.0402398
白灯 0.27356133 1.358112 -0.0840935 0.24621621 0.5398417 0.82387155 0.6390329 1.3640524 0.05908458 0.7184802 0.9322061 -0.5630481 1.3327793 -0.4400464 0.39523593 0.45601466 -1.7809258 -0.12683156 0.9862949 0.12221554 -1.8212745 -1.1439623 0.027464954 -0.3632112 -0.3667077 -0.27408814 0.1397295 0.65138716 2.0973024 -0.022689585 0.0850499 -0.9547344 0.120284215 -0.5164387 0.4825996 -2.0067248 -0.06033577 -0.3102042 -0.11969979 0.68658066 -1.6597885 -1.1832877 -1.3271966 -0.5388067 -0.38782284 0.14558129 -0.12935594 -0.41825807 -0.1495437 -0.5631635 -0.39479193 -0.6031973 -0.302819 -0.086216144 0.55869114 0.23710035 -0.450811 -1.1408591 0.34480497 -0.560437 -0.61406946 0.62041223 0.25560987 1.490213 -0.00422653 0.2967095 0.19486333 0.5283496 -0.40934137 0.16732107 0.75599897 0.4922825 0.745867 -2.069741 -0.8106072 0.2825264 -0.9735027 -1.1926548 -0.4422091 0.08512274 -0.5693363 0.9485353 -0.49217385 1.1494247 -0.015045914 0.46975076 -0.59544367 2.1735017 -0.5385228 -0.5177623 1.8293916 0.31331685 0.5265426 -1.016968 -0.7352904 0.8669685 -0.11469022 1.7307148 0.59395206 -0.07361864 -0.4424286 -1.233478 0.72856027 -1.1880295 -0.2275349 0.554297 -1.0525147 1.8189962 -0.9303871 -0.8443338 0.4918206 -0.2967526 -0.59279585 0.86695296 1.45969 -0.46341124 -0.02284316 0.15362778 -0.45211887 -0.34518728 0.90955997 0.8239428 -1.8398638 -1.3888315 0.55300605 0.6603899 1.0879195 -1.866867
翻唱 -0.09772011 -2.061852 0.28447652 1.8995615 1.7851067 0.545743 0.3617902 -0.3401246 0.1166963 -0.07623897 -1.5528835 -0.3224728 -1.0336723 0.5702042 0.014014707 -1.3633201 -0.33064586 -1.1643013 1.2884989 -0.672943 1.5019084 0.74379694 1.0044876 1.3002934 -0.95722216 -0.84410614 1.3663819 -0.62692416 -1.6494198 0.8946013 1.9198942 -1.2278614 -1.3361906 -1.959331 -0.05348231 1.2944096 1.0586903 0.59735566 0.94206446 1.2445365 -1.1441097 -1.5788734 -0.80545366 -1.3138763 -1.7346984 0.3233798 0.92178947 0.48288584 1.720469 1.0979998 1.1135088 -0.67003447 0.41785696 -1.4831482 0.20089035 1.1456177 1.5778005 1.2441419 -0.3082917 0.5806982 -1.4361805 0.36597228 -0.51521343 0.67863584 0.8696887 0.37591836 -0.1231385 -0.02509298 0.056278255 0.2108383 -0.2773505 1.268814 0.7439308 -2.4040246 0.9640388 0.3974772 -0.02388949 1.7773706 -0.01669586 1.7772967 -0.01853327 0.68790877 -1.103028 0.28312215 -0.20405848 -0.3723727 -0.60022134 -0.110353544 -1.713654 0.6769969 -0.5392863 0.07927394 0.35771486 -0.2074861 -0.7320547 -0.6983149 1.5714848 -1.4061605 0.37659866 -0.44868448 0.42265132 -1.7743148 -0.6258221 1.9334903 1.8867335 -1.4617184 0.26309988 -1.4736755 1.807433 -0.15407565 0.99178815 0.45945325 -0.6519588 0.08389132 0.4516904 0.63520306 -0.9633309 1.5324725 0.12721117 -0.016903516 -0.29987603 -0.88592327 0.9199012 -0.06114936 -0.116575696 -0.897416 -1.5899491 0.7767857
几首 1.5442522 -0.52889264 0.662029 2.7463517 0.10110814 0.80254483 -0.2953125 0.16387922 -0.29949874 -1.5736774 -0.6723429 0.0932561 -0.8281029 0.021847615 0.46201172 -0.91377735 -0.767513 -1.8766998 1.629963 -0.6604903 1.8800062 -0.5765884 1.1773831 0.7095203 -1.0744306 -0.39059567 0.21343897 -0.27967873 -1.2856575 0.5731207 -0.4028676 -2.9752233 -0.95726013 -2.2465947 -1.143697 0.685581 -0.4830995 -1.2352078 3.0083134 1.0486526 1.21141 -1.4498671 -2.7376513 -1.3597909 -1.8788006 -0.35432053 3.3778923 2.1308498 0.021396268 1.7979318 1.8294485 0.7434526 2.3241775 -1.3159549 -0.63759345 0.75010574 2.5420258 0.41329005 -0.6979554 1.8693526 -2.4019935 0.046797164 -2.0393977 -0.4860648 0.15430523 -0.91583437 -1.0241764 0.5647732 -0.8615237 -1.5842037 -0.62381065 -0.04356981 1.271592 0.38211498 2.1742487 1.6238025 -0.40331548 1.3096955 -0.1443011 2.7727973 0.9369587 -0.7843518 0.6036332 1.3488444 2.1912987 -0.1998054 -1.7455335 0.18174191 -1.2933962 1.1622417 0.303013 -1.3185669 1.7998215 -2.07451 -0.59310734 -2.5112462 0.21900822 -0.17898887 -0.192984 -0.6781138 0.5782041 -1.7182987 0.97004527 4.293785 1.4721146 -0.6740116 1.5741197 -0.6285461 3.8944395 1.8410542 1.7407659 0.41555148 -2.2778277 1.6254473 -0.9026076 -0.1425328 0.40785223 1.5873636 0.7961643 -1.2035437 0.2886225 -3.0307572 1.6239499 1.7332798 0.9198694 -1.0999869 -1.0460099 2.439996
要记 -1.0696763 0.061947323 -0.3730474 -1.5018541 2.581582 0.17805979 0.6453647 -1.9787794 -0.44932204 0.4865778 1.921853 1.0731877 -1.1036295 -0.8753471 0.25788143 -0.8325652 0.02621943 -1.2516133 3.3229494 -0.7774306 -0.51577824 0.54509914 0.5674318 0.82274425 -1.6005307 0.7908789 -2.267332 0.43723607 1.9847316 -2.1426787 -1.4718752 1.2624168 1.6326995 -1.9372823 -0.5625355 -0.69209164 -1.6562839 -0.23295905 0.5006444 -0.012457932 0.26296392 -0.25774547 1.304571 -1.9927402 1.4325058 -0.41971594 0.09537586 2.5900333 -1.1650797 0.8048845 -2.1283712 -1.030782 0.8103505 -0.5483915 -2.4697087 -0.5709823 -1.3827616 2.1204255 0.026459431 -2.6639075 -1.5778598 -1.6270003 0.27596924 -2.3725326 2.6223817 2.3859527 -0.32514355 1.3435127 0.49658155 1.6549331 1.4919202 1.4028891 -1.3227503 0.617406 2.5627925 0.026929598 0.73945874 0.5757792 -0.29433817 -0.75812733 -2.9432545 -3.0495586 2.7420542 0.561906 -1.4092572 -1.9187285 0.5364683 0.80958325 -1.4044441 0.2067596 -1.8843573 0.965646 -0.15931758 -0.48297703 1.3868536 -0.17425096 1.8612349 -0.112142615 -1.1363683 -1.5662469 -0.9171961 1.4858898 -0.8353407 -2.8983364 0.047564648 2.7539632 -0.40855274 0.39606276 0.930577 -0.503181 0.30287993 -1.5563636 -1.2069392 -3.0930483 1.0630343 2.10685 -0.0725392 -0.08416874 2.581764 -1.7881132 0.19756337 -1.4213555 -2.4195025 -1.0638319 1.7163367 -1.6055179 0.113517806 -2.0147107
新闻联播 -1.3726966 -1.0033007 -0.659307 0.54440284 1.9893279 1.0252006 -0.013875151 0.73919684 0.24932323 -0.14313973 0.36757034 -0.24320136 -3.1565428 1.0071015 -0.42690364 -0.17087932 -1.5724133 -0.5071925 -0.799406 1.0900445 0.6541787 1.4584919 1.028892 0.27664906 1.4030386 1.6030471 0.34265494 -1.0372773 -0.5040291 -0.5786206 1.4253991 -1.8430582 0.75287086 0.12863497 -0.2494091 1.025755 0.1748612 -1.069767 1.267261 0.33675927 0.91328275 0.3363478 -1.1579812 -0.03562219 0.23982519 -0.9550137 1.8559151 1.9399728 -2.614755 0.23433803 3.2432137 0.15843521 -0.22515102 0.18009411 1.7604771 0.2414351 -0.5220683 0.28541914 1.1991123 0.6390343 -1.8297249 0.87496406 1.3607259 -0.28579286 -3.0658617 0.8832844 1.5985863 2.2921271 -0.19121385 0.8371453 -0.52898955 -0.7245753 1.2415975 0.46365696 0.36888778 1.2653313 0.3627293 0.2921074 -0.86031604 1.7274325 -2.0442376 1.6302016 -1.210555 2.0675967 0.86484116 -0.6974898 -1.726827 -0.36381763 -2.5055754 1.0952487 0.3711993 -2.8053248 0.23005475 0.6561769 1.5174391 -0.93023366 2.7134311 -2.3758879 1.9333361 0.7085751 -1.5498327 -3.0690846 -0.231667 1.2097268 -0.51232964 -1.4094881 -0.5975365 0.2035826 1.8031151 0.3504521 0.5411365 0.8511555 -1.1611993 1.3608809 2.7156508 0.9715338 -1.5509415 0.19137217 1.1625282 -1.6717817 0.04999655 1.5684319 0.4672156 -0.11345711 -0.6578912 -0.8939683 -0.047092274 1.7445778
有 0.697161 -1.7651967 -1.9178686 -0.423399 0.5456843 1.6243646 2.001955 -0.1793822 -0.59064204 0.15214097 1.050872 1.5033363 -0.7632766 -1.1790185 -1.4536332 -0.08314901 0.21124208 -0.30651617 0.43860382 -0.87916565 -0.77288634 -2.0812418 -0.4573807 0.77264196 -0.4158189 -1.2228081 0.36242816 -0.88591504 -0.92311347 -0.9367302 0.70912385 1.1673716 2.3490863 2.1407194 -2.402071 2.120077 -0.646763 1.7820864 1.3940912 1.277199 1.9037591 0.7239217 -1.1197863 -2.514182 0.41409457 2.0851097 -0.9156121 0.7774524 -1.4054528 2.3405871 1.6122112 0.10072309 -0.7072002 -1.406762 1.192245 0.33009702 -3.1452708 -0.48983982 -1.7260693 -0.75317466 1.3534213 -0.06721197 -1.8318744 -0.9763321 1.6391627 0.6217032 -0.5861705 0.030426914 0.90167606 -2.512635 2.403764 -0.07148436 0.90296936 2.0675454 1.015474 -1.7909062 3.7391694 -0.19778615 -3.2683718 -1.0568186 2.355033 1.0329827 -1.9597372 -0.83198786 -3.1230533 -1.1171278 1.8855128 -2.1042488 0.98357904 0.37377954 0.8003901 0.2460415 -1.1228678 -1.3898877 0.3518536 1.8078496 2.4191883 -0.6702173 1.5558003 -1.27465 -0.8912195 -0.1904403 -2.1042295 -2.3910952 -1.0582768 -0.21209772 -0.7893531 -1.9448285 3.2377036 -4.484285 1.4808089 0.8413301 1.8367074 -0.88088953 4.218504 0.06604959 -1.1184605 1.6518154 0.55642676 -1.0007406 -1.5565561 0.41879135 0.82242185 -0.079342015 0.09049214 -0.115943626 0.61632407 -1.2120124
热歌 -0.063933 -1.8771999 1.0509655 0.47002512 1.4742403 1.7953442 0.79148406 0.2727115 -1.5105671 1.280191 -0.09823702 -0.36646503 -0.9175394 0.66298544 0.2715302 -0.6353605 1.1630279 -1.1631831 0.44114804 0.4589069 0.89515156 1.2773712 1.8416655 0.58709395 0.42416012 -0.5041419 0.058945745 -0.8184294 -0.5880654 -1.3777791 1.9131585 -0.5247235 -0.7441313 0.001787358 0.7985001 1.4581035 0.018075777 -0.54862314 0.31382468 1.056561 -0.7035047 -0.83316654 -0.10383496 -0.14075854 -0.11086228 -0.26891136 1.0831534 0.091749705 1.573627 -0.19666164 0.049253337 -0.014560801 -0.28228784 -0.56123346 2.0859268 0.52122873 1.4009213 -0.6496347 -0.049665634 0.6710163 -1.2360538 -0.9862598 -0.7584967 -0.827885 -0.25517088 0.25009966 0.5349493 0.051494587 -0.560652 -0.4829374 0.47573975 0.3628534 0.56337243 0.21999782 2.022388 0.02113141 1.221545 1.3502183 -0.9776926 0.20968547 1.440046 1.7583762 0.86754715 1.5152925 0.6961383 -0.38685092 -0.798541 -0.88262457 -0.6845096 -0.23477297 -0.7425051 1.004358 1.5750761 0.08380597 -0.33007583 -0.4140017 1.4588566 -0.3129331 0.3860988 -0.5974854 -1.0385138 -0.18327703 0.768373 1.2959908 1.4030633 -0.6499375 -0.0039123385 0.5882522 1.2455688 0.082319796 -0.11029635 0.030029213 -1.0344574 0.16054651 0.0714667 -0.26628068 -0.8637654 0.081422366 -0.15967184 0.44907293 -0.40545422 -0.52075124 0.37833396 0.71663815 -0.7173712 -0.42516965 0.5287326 0.60053486
大家 0.07461851 -1.187987 0.27730095 -1.1850594 0.27756423 0.5176627 -0.57871014 -0.6457789 -1.4854463 0.07459296 -0.16240607 0.7251557 -2.6268113 0.70809597 -0.79554945 1.1179391 -2.7602813 -0.29535758 1.3670357 1.2862115 1.3078059 2.355462 0.9298267 -2.368305 -2.9285963 3.6381257 -0.0298617 -0.13098006 1.9269148 -1.4647878 -0.55485165 -0.268661 0.14038083 0.8211536 0.6038821 0.7349175 -1.1048769 -3.1971242 -1.0921843 -0.9693429 -1.1250185 0.64693797 -2.8428369 0.7414404 2.1226256 -1.2474111 -0.28733554 0.32181937 -1.1579983 1.296172 0.06790414 -1.1946443 0.80548686 1.0204704 -1.4392054 -1.0147282 2.848491 0.81891644 2.1389568 -0.7063377 -2.3868368 -0.454992 0.92866707 -0.32069346 -0.42494816 1.5221905 0.5337154 0.53001505 0.06314199 0.8913265 -0.6771213 -1.052423 -0.19184981 0.4142275 -1.8923657 -3.131962 0.40047318 -2.6955705 0.76683426 0.3835103 1.5192271 0.17675318 -1.57572 -1.0457122 -0.34934035 0.24304031 -1.707841 2.4719214 -1.4159424 1.8586026 0.73278457 0.42359322 1.2976348 0.939449 -1.0613686 -1.5475953 1.5240644 -2.9800873 -0.300976 -0.09315672 1.2387218 -1.8800534 0.83195263 -0.58875006 -2.24001 -1.5787034 -0.35772768 0.3994524 2.2857924 -2.184696 -2.1969137 -0.9446543 -0.89669853 0.09224425 -0.030115021 -0.43769655 -0.043994006 0.081583 -0.03740434 -2.400871 -1.9684685 -0.1784597 1.9059074 1.3258523 0.53201157 1.9297472 -0.4901568 -0.3707595
爸爸 -1.6275015 -2.4629164 0.9037757 -0.9398965 -0.77045286 -3.0087779 -1.1666981 0.31152588 -1.0386893 -0.6320136 -1.0892394 -0.21493602 2.0302231 2.0220573 -1.4051592 1.329276 -0.6208829 0.24947357 1.591876 1.0903791 0.7387634 -0.24025252 1.2743279 1.3887136 0.9594164 0.80518687 -0.99480575 -3.4551826 1.3804743 0.10658343 -0.9787828 -0.65394884 0.11663559 -0.09460555 1.2825543 1.1236763 0.4146405 0.20936973 -2.3958817 -0.44324347 1.8578475 2.5107048 1.7854471 -0.52473795 1.3950845 -1.8927232 -0.744114 0.8678995 0.104502074 -0.2698997 0.16076134 0.49518827 0.069880195 -0.1410912 -0.36028585 0.6223742 2.3819203 0.65078783 0.061855838 -0.8324128 -0.74678624 0.48798496 2.1988811 -0.035279162 0.5531439 -0.023044564 0.93380046 -0.206892 -0.38785318 0.7684496 2.820275 -1.7234621 0.21752428 -0.09034068 -1.737342 1.589729 -2.2101393 0.9646377 0.34759206 0.24542378 0.4556078 -2.141552 2.5683134 -0.805292 0.8264396 1.6744772 2.7166183 0.2380257 -2.3879879 2.8104606 -1.3670193 -2.6899416 -1.1627947 1.3259772 -0.46933168 -0.67046213 0.848896 0.62841016 -0.5848263 -0.22462785 0.1772788 2.6063519 1.588249 0.8048139 1.9046277 -0.66413456 -1.9245213 -0.036123034 1.954127 -1.0982305 1.7131426 -0.6707783 1.7505132 0.04094721 0.24934441 0.33547738 -0.2396679 -2.0088706 2.6380692 0.22809908 -0.4305279 0.04277559 -0.42499802 -1.7223 2.96015 0.3434756 0.24983458 -0.33869597
所有 -0.8630209 0.6262861 -1.8907423 0.29037866 -1.3204303 0.2761816 1.0604709 -1.9477968 -0.86463964 -2.34548 -1.8875101 1.5704018 0.13937195 0.3915713 -1.0899144 -0.90823615 0.11553278 -3.4912364 -3.9281502 0.60748225 -0.5215434 0.77026117 1.634926 1.1796263 -3.0378325 1.6535033 0.82197547 -0.34520152 0.80375713 -1.9396659 1.9885266 2.3235233 -1.1845212 -0.6192436 -1.5752704 0.48118198 -0.5124694 -3.5410626 -0.7761422 -0.310048 -2.8976693 2.4651039 -0.3780595 1.0816611 -0.2953829 -2.966367 1.0210041 0.05522365 -1.8603334 1.2573457 1.8497251 -1.4753908 -0.43622345 2.4805996 -0.93626815 0.4185385 0.89719814 0.0035782533 -1.1558927 -0.5069232 1.5078396 0.77723956 -3.9268754 -3.41421 -0.55366945 0.5503216 -1.2956625 -2.0410361 1.5452259 1.1349577 0.22190972 -0.54028845 0.9929362 -0.19548889 -2.129352 -1.4109105 0.16441002 -2.3159206 0.6760302 0.019150743 2.8223178 -1.2913871 -1.7654889 -1.199666 0.7269096 2.9619648 -0.2087704 1.7594721 -0.5776 2.9551363 -0.085053794 1.8812351 1.408061 2.9849637 -1.1143239 -0.6796227 0.05024843 -4.919276 1.8783026 -1.0691653 0.776655 -3.4287453 -1.1431758 -1.5128695 -1.5529001 -0.92011714 1.6030549 0.79789835 2.2454102 -1.728801 0.83013517 -1.5411996 -2.962067 -0.9775095 -2.955648 -0.94001836 2.3403988 1.9302772 -0.17732167 -0.37891635 1.8895423 2.5086036 -0.7164404 1.2820336 -0.18671991 0.9185923 -1.6683996 0.45300373
路 -3.5988252 -0.8467503 1.182908 2.3200717 3.9029315 -4.022777 -0.17866132 -1.4841658 -0.1032953 0.6222385 -1.4882532 -2.5208735 3.6956358 -1.1649625 2.1966352 -1.9111464 -4.153909 3.1150253 3.5765362 -1.4399012 -5.377131 4.0830417 1.3560054 -1.1731273 -2.1656806 -0.15574245 1.2357079 4.181709 -0.30483878 1.6158812 0.0908598 -0.65794045 -1.7898719 -0.7217531 0.121986054 2.1684647 0.540901 0.12916896 -2.447979 -2.0662951 -3.077131 2.1429358 -3.0498307 0.38978425 0.44214535 2.210791 0.49783987 1.0479629 -0.1934064 1.0811812 -0.06077113 -2.3528664 2.4252942 -1.493943 1.9256043 1.3189989 -0.09127137 -0.24515693 -0.76473564 0.53394383 0.69352204 0.07113879 0.09505845 0.01757032 -2.035926 0.8414398 0.6697113 -2.4070878 0.753959 -2.3832579 2.5551775 -2.4265027 -1.6620464 -4.331148 0.57634026 -1.0700825 -0.71605355 0.045927417 -1.5455246 -2.9820428 1.6741035 1.3073266 0.20170648 1.5948035 0.25795412 -0.06306341 -0.95362496 1.4742723 1.8748602 -0.9056093 1.5047784 -1.8150374 -1.049999 -0.6744124 2.2209537 -0.6105178 1.6925366 0.9286719 -0.88061464 -1.6064912 -1.9004031 0.53754926 4.6177363 -0.8256765 2.451476 3.1148458 -0.75512016 0.07112031 -1.0365782 3.699027 -1.6166523 3.4958055 -0.50651634 -3.7062116 4.2593093 -1.165209 2.0271025 -0.54155916 2.6051521 0.44537994 -0.87596047 1.3182966 0.30779806 0.6820295 -1.76216 2.427369 0.24054892 3.7286332
但是 1.1366031 -0.0038172514 -0.096927665 1.4820884 0.6432406 -0.598488 0.21052453 -0.03683156 -1.7660819 -1.3192468 -1.4608822 0.8779475 1.3367815 -0.021891484 -1.0234432 2.1260498 0.9439638 -0.27748019 3.4304926 -0.19271986 -0.28236237 -2.5289545 1.0847034 -1.2529706 -1.0778784 0.38833618 3.1304018 1.7614036 0.6755884 1.0888081 -0.6156638 -0.85529864 1.0264952 3.4322758 0.3778212 -1.5805538 0.22856931 0.34440824 1.16105 1.7030711 2.0527356 0.6959251 -1.988316 2.3796766 0.5691564 2.3568099 -1.3164713 -0.8300285 -2.4376762 2.0980644 0.9931776 -2.2373319 -1.0176563 1.4515737 -0.006348376 2.1566622 1.4977144 -1.0502954 1.8007066 -0.6336002 0.4534002 -0.74228185 0.45527154 1.480212 -0.16606827 -1.6298224 -1.3257821 0.5235379 0.4338278 -0.40540951 -1.7431846 0.67303705 2.5680306 0.6256328 2.7952259 -0.7477945 -3.2060308 -0.7735385 -3.4543533 -3.323646 0.5962632 -0.45605966 -1.668686 2.3014927 -1.1692975 -2.3685606 -1.9087802 -2.3696496 -1.1022999 1.6315179 -4.2829847 1.8464177 -2.4479716 -0.9426421 -1.9179944 0.9553614 -1.1132532 0.7480289 -2.9303436 -1.519575 -0.19282536 0.17608212 -1.9214379 -1.8247154 -1.7811341 -0.47843432 0.9272613 -2.5069191 2.2725935 -2.282014 0.6146205 0.06712814 -0.60829735 -2.006969 3.0938022 0.5803913 -0.17191096 2.354103 -1.2499748 0.03857179 0.87072337 -2.8003569 0.4001305 0.60247463 -0.9932749 -2.675238 0.97507507 -0.049947158
说完 2.4762623 4.926051 -1.8460132 -1.5753938 -0.7050856 -1.7465264 1.9822686 -1.614786 -0.26193577 0.29112157 -3.3760312 -0.24720697 -3.2984288 -0.14783579 2.352961 -1.0288972 -1.5874211 0.12955666 -0.47613996 -0.3894082 -0.9045835 -1.0799199 6.4606175 2.2849503 0.06563405 -3.001941 -2.2396374 -0.14792487 0.041639436 1.7930676 -0.5762096 0.14801502 -0.8519844 1.1782568 1.0191791 3.3434176 -2.5229862 0.047329597 -3.0050285 2.481809 1.2986786 2.5995648 -2.6696804 -0.5117976 -1.867703 -0.84453917 -1.7888722 0.5944634 1.1859934 -0.23317796 0.77152216 0.95959413 0.0814774 0.4993123 -0.5951661 2.1380515 1.5455706 0.46520862 -0.0020901589 2.9872305 0.012349563 -0.42095256 3.9195502 -0.88895774 -5.3914075 1.6966326 0.91874653 -3.2088752 0.9109788 1.3177863 0.8638025 -1.2929586 1.3502874 -0.47753346 -0.48675182 2.8760679 0.75885427 4.5415215 -3.465769 0.63749003 0.13214593 -1.6386778 -0.32488126 -0.44357666 7.282218 0.20862202 0.20833933 4.208219 3.717748 -1.0171583 2.5160456 2.5119824 0.19295204 -3.5072892 2.348123 0.27595752 1.7290217 -0.89884096 2.2180026 -2.1032083 -1.121053 0.5367651 2.8368852 1.1450074 0.21627031 0.55854285 -1.4152509 0.094856955 -0.49832648 0.65356225 -1.57722 -3.9602625 4.21318 3.0941565 -3.2729065 -0.011049159 0.5262523 1.6156465 -0.733573 4.1251826 0.47149053 0.8683439 3.0746267 0.23679258 -0.73621565 -2.4060678 2.3449833 -2.1048856
湖南 0.35287112 -0.71528214 -1.5583733 1.2357924 0.55879927 0.908576 -1.7392455 2.0181637 -0.68736887 1.1452956 -1.5206918 0.93063295 1.4250441 -0.20905732 -0.8282388 0.11099432 0.043642256 -1.5349717 0.6532931 -0.98137254 -0.04004505 0.53887206 0.16551247 0.80997264 -0.7425074 1.8094596 -0.57554424 1.0260825 0.1794541 1.0385575 0.34371886 0.2656731 -0.16538297 0.55030066 0.6455557 0.07965885 0.12628976 -1.1176274 -0.41287476 -0.054323662 0.52684414 -1.1125853 0.5032689 0.07100276 1.0582103 0.21049201 0.9359876 1.831395 0.8316798 -0.40679926 -0.80986905 0.79575527 -0.6358624 -0.17171252 1.8029199 1.0550039 0.85781413 0.3278129 -0.49905947 -1.8927279 -0.5168543 0.2516294 0.87205154 0.78212386 0.114101745 -0.04325327 0.6585276 -0.98126316 0.9727778 0.9035067 -0.07057625 -1.0438066 0.09888869 1.7191805 -0.58206123 0.4377371 -0.35797402 0.41334146 1.3497196 2.4382186 0.7594308 -1.0997229 -0.7859615 -2.098661 0.63052505 -0.19350639 2.0031316 0.15895678 0.047830876 1.332377 -0.42959917 -1.3608881 0.10137242 -0.015245693 -0.16398385 -0.9067936 0.08594992 0.23125796 0.80088705 2.4643571 0.53831273 -0.42852965 -0.6060444 -1.2675084 0.16382062 -0.64469945 0.87864166 2.7412384 0.023415864 -0.48046583 -1.4646903 1.648833 0.6525902 -0.3751683 0.7928851 1.1752603 1.2976924 0.450279 1.4752907 0.10436187 -0.093212426 0.24165034 -0.5929668 0.6693274 -1.6252055 0.3187228 0.18829608 0.49689126
电视频道 -0.6592896 0.0071064066 0.78212833 0.6219916 1.4292449 2.8260741 -0.9702245 0.3018559 -0.59427786 0.3465997 -0.8023244 0.21768442 -1.5296515 0.20765088 -0.44800365 0.32819247 -1.6121979 -0.7840203 -1.0001415 1.1360725 0.3377741 0.6031182 0.016722646 -0.39285207 0.7598752 1.2683972 -1.1895664 -0.9640238 0.14942165 -1.0375061 0.98157626 -2.3043802 -1.4019679 0.46986973 1.8670031 1.2630024 1.4128432 -1.7162356 0.7625368 1.4911569 1.1408445 0.15978521 0.5339729 -0.7069965 0.4267399 0.035039082 2.457275 0.7493444 0.7612828 0.18305506 -0.16751516 1.1072962 -1.0653867 -0.39705992 0.39870706 0.61524713 0.8437873 -1.1795125 1.3120329 0.47686186 0.16739018 0.99079037 1.0605321 -0.5134194 -0.62874657 0.33723798 0.8222139 1.0992891 -1.4942448 1.036306 -2.5320337 -0.43332216 1.2720562 -0.7948565 0.89870536 0.44837058 0.9644131 -0.0702987 -0.75908786 0.7358315 -2.3220503 1.4532574 -1.6880732 0.25361258 0.3465831 -0.20963965 -2.1525428 -0.23532607 -1.5623462 -0.74085134 0.55630946 -1.8056481 1.0663584 1.0948653 0.6388618 0.8086338 1.142721 -0.9665649 0.6500634 -2.1044436 -1.9116825 -1.7139962 1.7415608 0.86004204 1.4868042 0.1342098 0.13602063 1.4140775 0.805213 -0.91359216 -0.14380819 -0.34743354 -0.26707134 -0.27465248 1.7462376 -0.34021708 0.266035 -1.144447 0.87927896 -0.5170383 0.16845621 0.8789153 -0.50712776 -1.3708723 -0.21063195 -1.6039357 -0.90365744 -0.34861305
场景 -1.6847975 -0.25014257 -1.1665852 -0.9129106 0.9840479 1.2089759 1.4255712 0.6037662 -1.885286 -1.167492 2.4366088 0.41900423 -3.2553303 1.2048761 1.5817918 -0.99248767 -0.955023 -0.20887412 0.75934464 -0.3841266 1.4871544 2.0738552 0.11662297 -3.2513008 3.4325125 -2.28093 0.88679016 -0.3514349 -1.5548137 -1.9370928 -0.2857047 0.42001528 -3.2625446 0.68112445 0.96123844 -1.1609151 1.6539782 1.3304176 -2.68765 -1.8289524 -2.531543 -1.0273081 -2.158982 1.041342 -1.6308177 -3.0513265 3.8327014 -1.6212895 -2.6786916 1.5634104 -0.67012364 1.5727335 -0.86280155 0.41907108 -1.2460096 -1.2930086 2.307898 -1.5834286 1.6347315 -1.2464759 0.81935555 -0.9444081 1.8358254 1.138447 -0.52697223 0.7859537 1.5588659 -0.7049134 -0.8058006 1.35385 1.1577817 -1.7393249 0.50003475 -2.3420157 3.9936893 2.8860528 0.69399935 -2.321146 0.31427777 0.7037441 1.406312 0.86632943 -1.8990294 2.9544568 -2.102581 -0.033136636 -2.1234066 -0.041767497 0.21560529 3.5251672 0.71555907 -1.8560503 -2.2366033 2.006758 -0.37621585 -0.21890734 -0.43877319 -0.86063594 -1.6996235 1.7301263 -1.9818355 -1.4782159 -1.2236204 1.447354 -1.1262681 -0.32208565 -1.9292825 -0.3446579 -0.071498096 1.1020641 -0.36755514 -0.36356974 -2.4756982 0.25136024 0.27784804 0.76435494 -2.1731954 0.41865388 0.97865516 -1.1117091 -1.0096964 -1.4166962 -0.24870642 -1.2139139 -2.7971897 0.98450583 0.30030185 1.9554943
回家 -0.04824029 0.24447383 -1.3354567 -2.0366251 0.21413493 -2.4584248 -0.5454744 0.4366303 1.4489381 -2.6693022 -3.061094 -0.7581949 1.3219217 1.7519116 0.6396788 0.111904055 -2.028875 2.3658712 1.5252789 0.87535185 0.1423763 0.8359357 2.4685745 2.211147 2.10876 2.1770236 -0.7938039 -0.7008964 1.6751152 2.5413895 -0.30331084 -0.72493714 0.16996446 1.4161539 -0.6631023 0.128034 -3.213534 -0.09888005 -2.1104395 1.0323566 2.4611459 2.293681 -1.5417967 -1.9055554 2.7523277 -2.8065488 -0.047723822 3.8462439 -0.4390073 0.5072382 1.4438598 0.87877893 -0.17127122 -0.534477 -0.3368581 0.54837584 1.3336014 -0.038985394 0.35073268 3.1699145 -0.90222156 -0.5914138 3.1463196 2.4323118 -1.3551649 -1.7226427 -1.3334266 -0.2114858 -0.2741354 0.9289241 0.72457296 -3.5740294 1.2513095 0.4965026 -2.4511833 2.7282655 -0.00761991 1.8903571 -2.329976 -0.49711218 1.3587751 -1.2636628 2.8707414 -1.9932616 2.188592 1.9533639 1.0450177 -0.3553328 -0.28810233 0.54199195 0.748435 -0.016485129 -2.3382523 -1.7518579 -0.3777169 -1.8534546 -0.96028984 -1.5486304 0.6026849 -0.21381792 1.0438192 -1.7193799 3.1701581 2.3997712 -1.2326876 0.20603576 0.8031027 -0.2833506 -0.42119256 1.1959577 1.5609227 0.929344 1.8076637 -2.6614695 0.87971085 0.105732724 1.3425655 -0.3502015 2.1075797 1.1064823 1.49374 0.9785294 -0.7828663 -0.6292722 0.50818753 2.2049122 -1.7572274 -0.29474315
单 -0.10122254 2.2367198 -0.34482312 0.5769786 0.43781105 -0.17010903 -0.9436535 1.4030329 0.9073818 -0.8487719 -1.607707 1.6019351 0.6304175 -1.4783765 1.6785793 -1.2166234 3.36736 0.81997496 -1.371729 1.7924411 -5.371938 -0.8956122 2.018284 -3.7356796 -0.16015263 1.824517 -0.20905165 -0.22654523 -1.8739192 1.5242074 2.607357 0.63960075 0.27965736 -0.84180945 -0.30500546 -2.1053336 -1.4944763 1.5455583 -0.2143929 2.334897 0.70937437 0.93404657 0.09614307 -1.3061247 1.1389042 0.7322965 1.2894294 0.0068772202 1.019534 0.9473055 -1.2388505 2.7216394 0.084871456 -3.4326622 0.17454483 -0.8706736 -2.6878963 -1.4048216 -0.07240479 0.26362145 1.582117 -1.74878 -1.2443036 -2.1599355 -1.519641 -0.112356156 -1.5241848 1.4486033 -1.1733708 0.84786 -0.4250282 -0.61389476 -1.3276526 -0.16621146 -0.18264705 0.60073507 0.6900419 -1.0151727 -1.7650828 1.5636235 -2.2742147 4.318392 -0.971736 1.0911546 -0.5898422 -2.3172047 -2.6881368 -0.68148917 0.85400915 1.2694062 4.56067 -0.30395147 -0.13333318 -0.80952847 -0.2954873 -0.6285215 2.3985913 0.73086995 0.36907527 -0.9641986 -1.0271821 0.8563978 1.5108349 -0.52256894 -0.2702333 -0.20611732 0.81187946 -0.07466453 1.4047676 -2.2680523 0.40188748 -2.091431 -2.467048 -1.6434762 1.1726457 3.1435442 1.7664127 -0.9083262 -0.3023212 1.0532544 1.8469131 0.7354814 3.17956 -0.55716014 -2.2136269 0.16621119 -0.08492115 1.393941
司马 0.38771626 -1.1602739 2.7322009 2.4285429 -4.360734 1.124599 2.7046752 -0.63357544 -6.8290944 -2.5825088 1.4288424 1.4156625 1.8354398 4.7013307 1.8271866 3.3833675 2.3938847 -0.57529265 1.2924457 4.598786 1.587174 -1.1377418 -2.322815 -3.7351804 -1.7651615 2.2876797 -0.3839235 2.6534522 2.8756936 3.7999618 -2.643129 -3.64126 -2.0985012 5.0859084 5.6330943 3.93979 -0.7734731 1.2786036 0.9603165 2.4300492 -2.8018816 -0.22332543 -0.6260201 -1.1049285 2.7479393 1.9384058 -4.0436525 1.1107485 4.815101 -1.2709783 0.8113248 -3.7678745 1.8637469 7.543403 -3.2553496 0.60947806 4.049661 -1.620866 -2.6692736 -1.5359281 -0.37576362 -0.9068446 1.0512508 0.9984387 -0.13223515 -2.621982 -2.788108 2.811953 -5.6209164 -4.0837708 2.8230228 -0.2883408 1.4621576 1.2308277 3.9264464 -0.5451437 -2.8341708 -1.9507453 -1.6201973 -0.5441857 -2.5660486 -0.19256598 -1.064782 -5.0737343 5.037213 -4.5441537 -5.779888 -0.91059446 4.6342535 -1.023773 3.4584363 1.9811795 0.03485227 -0.76530176 2.2987773 -3.2632644 5.5198436 0.2938746 -0.26069632 -0.95124257 -1.6348517 -0.7714921 2.0728142 -3.3828778 -0.27221495 -1.4354596 1.5065765 -3.2463734 -2.2203045 -1.1168672 -2.6728818 -3.8004355 -4.2279186 -3.892376 -0.8524295 0.8063703 -1.512772 4.023921 1.7163849 2.3424723 1.3424001 1.4923898 2.6146276 3.6084795 -1.8751916 1.715489 2.9982843 2.517907
宫 1.61064 4.39456 2.3888628 4.9193635 2.9896672 -1.0848949 0.078051805 0.14629233 -0.35194194 -2.4132144 -0.52651274 -0.89108944 0.3724318 3.751274 -2.1136365 -1.1489486 0.4322676 3.1776633 -3.7657256 -0.35115564 -1.7606782 4.7765856 5.664254 -2.3180146 -1.2775168 -0.48374045 2.548094 0.8459492 -1.6157705 -1.3838601 3.156893 0.54944587 -1.388604 2.0541708 0.5000813 1.1573763 2.1206481 -1.0398396 0.8274807 1.2106457 -0.55238694 1.4029537 1.9974722 2.9289136 3.202171 -2.8768494 0.23986843 -1.754966 -1.4649569 -1.6294208 0.7521031 1.0225114 3.986357 2.493117 3.9677641 -0.22562984 0.46646184 1.8934273 -2.8605416 -1.1769729 -1.4440291 -1.566474 2.788295 -0.18545797 2.7122414 -2.5274732 -0.6804424 -2.4415069 -0.85031545 -0.7739092 0.16077203 0.82177013 1.5216881 3.1876311 -0.24773245 -0.9390788 1.8701653 -3.1700807 -0.7996547 3.4766445 -0.026182922 -3.2950077 -1.98693 -0.13454443 3.74935 -3.3803015 1.1241915 0.13268928 2.1257014 -0.6356357 -1.3116609 -4.0434403 3.8012426 0.021795323 3.1205165 0.7635195 -2.7928104 0.24625213 0.8469639 -4.8009048 1.2132893 2.2082288 0.10088886 2.7589903 -2.8638017 3.2147918 0.49388796 4.481623 -2.566922 -0.66532594 1.8874106 2.4300692 -1.6023706 -0.4990385 1.8145643 -4.252088 -3.658952 -1.1675935 -0.4676415 2.0642612 -0.20872994 1.1669215 -1.9723055 2.82019 -0.010759922 -2.8831263 -1.0955591 -2.1735728
